tree
version=v4
num_class=1
num_tree_per_iteration=1
label_index=0
max_feature_idx=34
objective=binary sigmoid:1
feature_names=st_rank_in_race st_rank tenji_rank is_crosswind is_strong_wind dash_attack_flag wall_weak_flag st_pred_sec st_rel_sec dash_advantage proba_nige proba_sashi proba_makuri proba_makuri_sashi proba_win motor_rate3 power_outer power_inner tenji_sec wind_speed_m power_lane course_first_rate kimarite_sashi tenji_st kimarite_nuki course_3rd_rate wave_height_cm kimarite_makuri_sashi boat_rate3 boat_rate2 kimarite_makuri motor_rate2 course_avg_st outer_over_inner __finish_rank__
feature_infos=[1:6] [1:6] [1:6] [0:1] [0:1] [0:1] [0:1] [0.068274817113515379:0.3055558286018345] [0:0.20802119987744516] [-0.1108836788886173:0.10138493277791311] [0:0.99999877562212214] [0:0.91767996001655106] [0:0.96771693817453042] [0:0.92632569141702925] [0.00033015009470376114:0.70712537765015848] [0:100] [1.6193333333333335:143165596.104] [2.3699999999999997:143165597.05533335] [6.3499999999999996:7.5599999999999996] [0:14] [0.10000000000000001:429496754.65799999] [0:100] [0:19] [0:0.81999999999999995] [0:8] [0:100] [0:35] [0:13] [0:100] [0:90] [0:18] [0:90] [0:0.37] [-143165584.68333334:143165588.10966668] [1:6]
tree_sizes=360 367 369 368 369 365 368 368 367 366 369 368 369 366 367 369 369 6885 368 369 370 369 370 369 369 367 368 369 370 6876 368 369 369 368 369 369 369 369 368 369 370 370 6916 368 369 6924 366 368 368 369 369 367 367 369 370 368 367 6931 370 369 369 368 370 369 368 368 370 370 370 370 369 369 369 369 367 369 368 370 370 368 370 7098 369 370 369 368 367 370 367 369 369 370 369 370 369 7138 369 369 369 7094 369 7087 369 369 371 368 368 370 370 367 369 368 370 370 370 370 370 367 370 369 369 371 371 368 368 369 371 369 370 371 368 371 371 369 5604 370 370 368 368 369 370 5043 370 369 370 371 368 369 6318 370 369 369 367 4824 368 369 369 370 4741 369 6039 368 6222 369 369 371 6712 371 369 370 368 370 370 371 370 370 369 369 370 371 366 370 369 370 6453 367 4545 366 370 369 5298 369 5257 370 370 370 370 370 5755 4328 370 369 367 369 369 371 369 367 370 370 370 370 371 373 373 372 372 373 372 373 373 373 371 373 374 373 372 372 4949 373 374 372 372 372 371 373 372 374 372 372 372 4249 374 374 373 373 373 374 373 373 375 374 374 374 373 374 374 372 373 375 373 3190 3921 373 374 373 373 373 374 375 374 373 372 375 372 375 374 374 372 374 374 372 375 374 374 374 371 373 374 375 2616 373 3662 374 372 374 374 374 372 374 374 373 373 373 371 375 376 377 376 377 377 376 375 377 2728 3569 3404 377 375 377 376 375 377 377 375 377 378 376 378 376 378 376 377 376 377 376 377 377 376 377 377 377 378 376 375 2385 377 376 378 377 376 377 376 376 377 377 375 376 376 378 377 378 378 377 377 377 376 375 376 377 375 378 376 377 377 374 377 378 2394 377 377 2389 376 377 377 377 375 377 375 375 377 377 377 376 376 378 377 378 377 377 376 3223 375 377 375 376 376 376 376 377 376 377 377 376 375 376 375 2289 2022 2047 376 375 378 376 376 376 373 2309 377 377 377 376 2299 375 373 374 375 377 2517 375 377 2167 377 377 377 377 375 377 376 375 374 377 376 376 1796 377 1792 376 376 375 2176 378 379 378 376 380 379 378 379 379 379 378 377 379 378 378 379 378 379 378 376 378 380 378 377 380 379 378 379 378 378 378 379 379 378 378 379 376 1100 377 379 377 377 380 379 379 380 377 378 1443 377 376 377 379 380 377 379 377 378 379 379 378 379 380 378 378 379 379 1579 379 379 380 377 380 1792 378 378 379 380 377 379 379 379 380 378 378 380 380 377 378 380 379 380 380 380 1821 1433 378 380 380 380 1923 381 379 380 1573 379 380 379 380 380 379 378 379 381 380 379 380 381 378 1458 378 379 859 378 378 380 380 380 379 379 380 380 380 379 381 380 380 380 380 380 381 380 381 380 378 379 379 380 977 379 380 1215 379 1214 378 380 380 378 378 381 380 1222 380 380 380 379 379 1444 380 380 381 378 379 380 378 379 380 380 379 379 380 1454 377 379 379 1105 380 380 378 380 379 380 379 1206 381 380 380 379 379 380 380 380 1100 1098 379 380 379 380 380 1672 380 381 380 379 379 378 381 379 380 380 379 971 381 379 381 380 380 378 379 380 379 1334 380 381 379 1458 1331 1558 379 379 382 380 381 380 380 381 381 978 381 381 380 381 380 381 378 382 381 1096 379 381 381 381 382 381 380 381 1098 379 380 381 381 380 379 381 381 380 376 380 379 378 1108 381 380 381 381 379 382 381 382 380 380 381 381 1343 381 381 380 381 381 382 381 381 380 380 382 381 378 380 380 381 381 382 382 1106 1097 381 379 381 380 859 379 381 381 381 378 380 381 1199 381 380 381 382 382 381 382 381 379 379 380

Tree=0
num_leaves=2
num_cat=0
split_feature=34
split_gain=21935.7
threshold=3.5000000000000004
decision_type=2
left_child=-1
right_child=-2
leaf_value=0.12519466829158982 -0.074767609024800549
leaf_weight=2775.26126781106 2709.5228445529938
leaf_count=11103 10840
internal_value=0.0264114
internal_weight=5484.78
internal_count=21943
is_linear=0
shrinkage=1


Tree=1
num_leaves=2
num_cat=0
split_feature=34
split_gain=19893.1
threshold=3.5000000000000004
decision_type=2
left_child=-1
right_child=-2
leaf_value=0.094082450982684376 -0.09636228197035919
leaf_weight=2782.8314188867807 2701.2231740355492
leaf_count=11175 10820
internal_value=0.000276623
internal_weight=5484.05
internal_count=21995
is_linear=0
shrinkage=0.05


Tree=2
num_leaves=2
num_cat=0
split_feature=34
split_gain=18044.8
threshold=3.5000000000000004
decision_type=2
left_child=-1
right_child=-2
leaf_value=0.090122123720887959 -0.092101341184331637
leaf_weight=2745.1195841580629 2687.7737675607204
leaf_count=11113 10830
internal_value=-2.82562e-05
internal_weight=5432.89
internal_count=21943
is_linear=0
shrinkage=0.05


Tree=3
num_leaves=2
num_cat=0
split_feature=34
split_gain=16559.2
threshold=3.5000000000000004
decision_type=2
left_child=-1
right_child=-2
leaf_value=0.086662684825152297 -0.088395085328152254
leaf_weight=2733.8011082410812 2668.5067293047905
leaf_count=11199 10860
internal_value=0.000191352
internal_weight=5402.31
internal_count=22059
is_linear=0
shrinkage=0.05


Tree=4
num_leaves=2
num_cat=0
split_feature=34
split_gain=15233.4
threshold=3.5000000000000004
decision_type=2
left_child=-1
right_child=-2
leaf_value=0.083617245852766517 -0.085145021007309543
leaf_weight=2696.8498713970184 2650.2330476045609
leaf_count=11216 10932
internal_value=-2.85182e-05
internal_weight=5347.08
internal_count=22148
is_linear=0
shrinkage=0.05


Tree=5
num_leaves=2
num_cat=0
split_feature=34
split_gain=13953.5
threshold=3.5000000000000004
decision_type=2
left_child=-1
right_child=-2
leaf_value=0.080918527056526357 -0.082274201378826156
leaf_weight=2647.0420569479465 2590.9545298218727
leaf_count=11209 10866
internal_value=0.000195586
internal_weight=5238
internal_count=22075
is_linear=0
shrinkage=0.05


Tree=6
num_leaves=2
num_cat=0
split_feature=34
split_gain=12841.5
threshold=3.5000000000000004
decision_type=2
left_child=-1
right_child=-2
leaf_value=0.078512918906457632 -0.079723148633537536
leaf_weight=2576.9290256202221 2549.8705343306065
leaf_count=11139 10902
internal_value=-0.000187741
internal_weight=5126.8
internal_count=22041
is_linear=0
shrinkage=0.05


Tree=7
num_leaves=2
num_cat=0
split_feature=34
split_gain=11890.4
threshold=3.5000000000000004
decision_type=2
left_child=-1
right_child=-2
leaf_value=0.076357950231529192 -0.077443300349112551
leaf_weight=2534.5068695545197 2490.5223629772663
leaf_count=11209 10882
internal_value=0.000130201
internal_weight=5025.03
internal_count=22091
is_linear=0
shrinkage=0.05


Tree=8
num_leaves=2
num_cat=0
split_feature=34
split_gain=11006.9
threshold=3.5000000000000004
decision_type=2
left_child=-1
right_child=-2
leaf_value=0.07441812007626307 -0.075395881417348459
leaf_weight=2478.5472709536552 2424.1587796211243
leaf_count=11238 10848
internal_value=0.000341836
internal_weight=4902.71
internal_count=22086
is_linear=0
shrinkage=0.05


Tree=9
num_leaves=2
num_cat=0
split_feature=34
split_gain=10184
threshold=3.5000000000000004
decision_type=2
left_child=-1
right_child=-2
leaf_value=0.072664524014958085 -0.073549254510013332
leaf_weight=2399.1619128584862 2362.7974972128868
leaf_count=11173 10850
internal_value=0.000115701
internal_weight=4761.96
internal_count=22023
is_linear=0
shrinkage=0.05


Tree=10
num_leaves=2
num_cat=0
split_feature=34
split_gain=9450.69
threshold=3.5000000000000004
decision_type=2
left_child=-1
right_child=-2
leaf_value=0.071073546151572062 -0.071877108085806038
leaf_weight=2319.0039620548487 2303.827453404665
leaf_count=11111 10875
internal_value=-0.000167269
internal_weight=4622.83
internal_count=21986
is_linear=0
shrinkage=0.05


Tree=11
num_leaves=2
num_cat=0
split_feature=34
split_gain=8813.59
threshold=3.5000000000000004
decision_type=2
left_child=-1
right_child=-2
leaf_value=0.06962537902692538 -0.07035751117576125
leaf_weight=2251.4407371729612 2244.3998705148697
leaf_count=11115 10908
internal_value=-0.000256559
internal_weight=4495.84
internal_count=22023
is_linear=0
shrinkage=0.05


Tree=12
num_leaves=2
num_cat=0
split_feature=34
split_gain=8233.07
threshold=3.5000000000000004
decision_type=2
left_child=-1
right_child=-2
leaf_value=0.068303262299610659 -0.068971808873976789
leaf_weight=2201.6889961063862 2165.5724195837975
leaf_count=11215 10852
internal_value=0.000233142
internal_weight=4367.26
internal_count=22067
is_linear=0
shrinkage=0.05


Tree=13
num_leaves=2
num_cat=0
split_feature=34
split_gain=7663.96
threshold=3.5000000000000004
decision_type=2
left_child=-1
right_child=-2
leaf_value=0.0670921330824715 -0.067704841312476838
leaf_weight=2118.2399220764637 2097.729256644845
leaf_count=11147 10853
internal_value=2.13887e-05
internal_weight=4215.97
internal_count=22000
is_linear=0
shrinkage=0.05


Tree=14
num_leaves=2
num_cat=0
split_feature=34
split_gain=7194.89
threshold=3.5000000000000004
decision_type=2
left_child=-1
right_child=-2
leaf_value=0.065980629190763682 -0.06654324337787515
leaf_weight=2062.1782307624817 2032.7481255233288
leaf_count=11224 10871
internal_value=0.00019473
internal_weight=4094.93
internal_count=22095
is_linear=0
shrinkage=0.05


Tree=15
num_leaves=2
num_cat=0
split_feature=34
split_gain=6723.79
threshold=3.5000000000000004
decision_type=2
left_child=-1
right_child=-2
leaf_value=0.064957588746782216 -0.065475430515707506
leaf_weight=1991.7250722646713 1958.7502467632294
leaf_count=11224 10840
internal_value=0.000285241
internal_weight=3950.48
internal_count=22064
is_linear=0
shrinkage=0.05


Tree=16
num_leaves=2
num_cat=0
split_feature=34
split_gain=6306.18
threshold=3.5000000000000004
decision_type=2
left_child=-1
right_child=-2
leaf_value=0.064013754551270605 -0.064492269428747875
leaf_weight=1901.2659797668457 1915.5233105421066
leaf_count=11104 10981
internal_value=-0.00047927
internal_weight=3816.79
internal_count=22085
is_linear=0
shrinkage=0.05


Tree=17
num_leaves=63
num_cat=0
split_feature=25 25 21 25 21 2 2 25 25 2 25 18 25 25 27 21 25 25 23 20 29 18 5 21 28 2 18 15 29 23 2 22 31 15 26 8 32 15 15 17 21 26 20 21 17 19 29 17 29 23 2 23 21 18 17 23 29 29 15 1 2 32
split_gain=689.818 123.909 120.812 25.8448 23.8776 14.7617 14.6876 7.79611 7.40775 6.82278 5.47282 5.50415 5.20931 4.35663 4.19379 4.07744 4.04339 3.81131 3.35361 3.14582 3.13314 3.02898 2.79406 2.75636 3.19473 2.64302 4.18021 2.45915 2.43826 2.39495 2.23177 2.2159 2.16106 2.87297 2.08024 2.02768 1.91125 2.40826 2.53735 2.0946 2.21344 2.59608 1.88487 1.87289 1.80829 2.59194 1.99823 1.85768 1.99213 2.39194 1.78583 1.77699 1.76906 1.73365 2.0772 1.73295 2.41432 2.03193 1.72527 1.73681 1.7235 2.1454
threshold=56.050000000000004 28.650000000000002 38.250000000000007 18.200000000000006 12.250000000000002 3.5000000000000004 2.5000000000000004 63.150000000000013 41.500000000000007 3.5000000000000004 47.750000000000007 6.785000000000001 67.450000000000017 79.350000000000009 1.0000000180025095e-35 11.200000000000001 8.4000000000000021 34.250000000000007 0.14500000000000005 14.525 35.570000000000007 6.6250000000000009 1.0000000180025095e-35 19.050000000000004 56.565000000000005 2.5000000000000004 6.9450000000000012 55.105000000000011 30.020000000000003 0.10500000000000002 5.5000000000000009 1.0000000180025095e-35 26.755000000000006 60.275000000000013 6.5000000000000009 0.087920372087322632 0.17500000000000002 47.090000000000011 63.530000000000008 13.777000000000003 7.5500000000000007 2.5000000000000004 11.677500000000004 13.850000000000003 13.958166666666667 2.5000000000000004 36.855000000000011 14.338166666666668 32.935000000000009 0.095000000000000015 4.5000000000000009 0.0031500000000000005 8.0500000000000025 6.8850000000000007 12.642500000000002 0.065000000000000016 29.540000000000003 29.540000000000003 47.005000000000003 4.5000000000000009 5.5000000000000009 0.17500000000000002
decision_type=10 8 10 10 10 2 2 10 10 2 10 10 10 10 10 10 10 10 10 2 2 8 8 10 2 2 8 2 2 8 2 10 2 2 2 8 10 2 2 2 10 2 2 10 2 2 2 2 2 10 2 10 10 10 2 8 2 2 2 2 2 10
left_child=1 3 6 16 5 8 7 29 35 21 14 43 15 -4 19 20 42 58 23 51 -8 -5 -9 24 -13 26 28 -11 -10 -2 -19 -28 -17 44 55 -3 37 -37 39 -39 -41 -42 -1 -12 45 -34 47 -46 49 -49 -15 -6 -31 54 -18 56 -23 -57 -7 -60 61 -14
right_child=2 4 13 9 10 17 12 22 25 27 11 18 60 50 -16 32 53 30 -20 -21 -22 34 -24 -25 -26 -27 31 -29 -30 52 -32 -33 33 -35 -36 36 -38 38 -40 40 41 -43 -44 -45 46 -47 -48 48 -50 -51 -52 -53 -54 -55 -56 57 -58 -59 59 -61 -62 -63
leaf_value=-0.055936348986973486 0.019321991241176381 0.0098392562310273927 0.036065679271576938 0.0047185331840296713 -0.021131940355892873 -0.037651359473436209 -0.0083517527901211201 0.028202672249676243 -0.003746449644563464 -0.036727813339522339 0.005942258724920063 0.0069384200741328689 0.015286736003073599 0.049754926507293462 -0.01461530172817564 0.019087641810037678 -0.022084099436704561 -0.015044218950787275 -0.018671576983599898 0.02150559764815951 0.010255925521078565 -0.00078735332298016992 0.011018134422098584 0.024683422486310919 -0.025362191315004268 -0.0085631991925397433 -0.016743838957678739 -0.020747107689038174 0.0096479643475456157 -0.0069859902331892154 -0.025861157921703445 0.0029982563618362545 -0.0025889874155871889 0.02406825646679291 0.0010569987952911066 -0.017676073504430855 -0.018404834250687049 0.0041713283931550669 -0.024777932877997282 -0.013900958331397043 -0.011796900934748139 0.024062835457486682 -0.043560644480905478 0.023579994815951213 -0.022442006524751895 0.022558047317057316 0.012979939953334924 -0.0035445904675582237 -0.011002303585590768 0.021753512962143094 0.036579333064059798 0.0040925263860452721 0.010987190543790328 -0.047729775568449491 -0.037973536876821264 -0.036780316146789026 -0.02068526459209907 -0.020893495633879128 -0.017313944639346022 -0.037074618488033666 0.0017508149644693935 0.031728321837927918
leaf_weight=80.83891960978508 92.376925155520439 8.9834363758563978 107.55646498501301 12.487938076257704 9.3644000589847582 33.68968503177166 69.074224233627319 292.36418476700783 49.351853564381599 113.44276009500027 20.97617769241333 33.124453499913216 178.05287893116474 351.79027260839939 50.269315421581268 47.850238054990768 30.766019880771637 305.79971876740456 16.713065728545189 18.433476224541664 32.441951930522919 20.66510871052742 27.613748505711555 13.941758036613463 8.8692032992839795 108.11893969774246 40.09547258913517 36.610033079981804 104.99194450676441 16.014678999781609 58.887813344597816 21.319016993045807 16.50352169573307 20.252374708652496 10.662685528397558 74.185043424367905 122.14979469776154 47.79319155216217 15.725849241018294 57.110076203942299 9.5167575180530566 8.796131566166876 106.51635952293873 60.934897840023041 10.202436119318007 25.239289656281471 22.782368049025536 22.007872626185417 24.871174171566963 14.94485968351364 43.08225816488266 20.649223551154137 74.19429437816143 45.155599340796471 125.5308123677969 31.004157200455666 58.005298838019371 77.397538334131241 48.285351350903511 15.589376941323279 19.823895618319511 22.715650379657745
leaf_count=481 556 54 649 75 56 201 414 1762 296 677 126 199 1071 2127 301 288 184 1831 100 111 195 124 166 84 53 648 240 219 631 96 352 128 99 122 64 444 731 287 94 342 57 53 635 367 61 152 137 132 149 90 260 124 446 269 749 185 347 463 289 93 119 137
internal_value=0.000177756 -0.0182036 0.0257663 -0.0345707 -0.00932428 -0.0124314 0.0159296 0.0220438 -0.00766053 -0.0248018 0.0045374 0.0103855 0.0100656 0.045847 -0.00463121 0.00581508 -0.0435358 -0.0192958 0.000333313 0.00581447 -0.00236318 -0.0188273 0.0267586 0.00624003 -0.00031481 -0.00222121 0.000981683 -0.032992 0.00536852 0.0136805 -0.0168568 -0.00995246 0.00986357 0.00694563 -0.0203306 -0.0127565 -0.0133894 -0.0104424 -0.00648145 -0.00396563 -0.00910889 0.0057815 -0.0491691 0.0191894 0.00424961 0.0127879 0.000396094 -0.00370749 -0.000307833 0.00699036 0.0484134 -0.00420524 0.00775483 -0.0380798 -0.0350061 -0.0215488 -0.015534 -0.025732 -0.0281489 -0.0226339 0.0159123 0.017295
internal_weight=3664.5 2132.75 1531.76 749.083 1383.67 1130.39 1029.33 502.564 668.138 360.276 253.276 154.56 526.763 502.429 98.7164 306.17 388.808 462.252 72.6485 48.4471 101.516 210.223 319.978 55.9354 41.9937 323.877 215.758 150.053 154.344 182.586 364.688 61.4145 204.654 156.804 197.735 344.26 335.277 213.127 138.942 123.216 75.423 18.3129 187.355 81.9111 136.552 41.7428 94.8087 72.0263 61.8239 36.9527 394.873 30.0136 90.209 201.452 156.297 187.072 78.6704 108.402 97.5644 63.8747 220.592 200.769
internal_count=21992 12764 9228 4472 8292 6771 6192 3026 4005 2154 1521 929 3166 3036 592 1839 2318 2766 436 291 609 1258 1928 336 252 1943 1295 896 927 1098 2183 368 1230 942 1183 2062 2008 1277 833 739 452 110 1116 493 820 251 569 432 371 222 2387 180 542 1202 933 1119 471 648 583 382 1327 1208
is_linear=0
shrinkage=0.05


Tree=18
num_leaves=2
num_cat=0
split_feature=34
split_gain=5832.71
threshold=3.5000000000000004
decision_type=2
left_child=-1
right_child=-2
leaf_value=0.062985124140017792 -0.063426678380614082
leaf_weight=1831.942516297102 1816.1466652899981
leaf_count=11181 10871
internal_value=5.27624e-05
internal_weight=3648.09
internal_count=22052
is_linear=0
shrinkage=0.05


Tree=19
num_leaves=2
num_cat=0
split_feature=34
split_gain=5471.05
threshold=3.5000000000000004
decision_type=2
left_child=-1
right_child=-2
leaf_value=0.062190764316708405 -0.062598013520499679
leaf_weight=1761.7422084659338 1749.6347637921572
leaf_count=11164 10870
internal_value=1.13959e-05
internal_weight=3511.38
internal_count=22034
is_linear=0
shrinkage=0.05


Tree=20
num_leaves=2
num_cat=0
split_feature=34
split_gain=5130.21
threshold=3.5000000000000004
decision_type=2
left_child=-1
right_child=-2
leaf_value=0.061452678350574386 -0.061830299183833454
leaf_weight=1691.3472465574741 1682.1053626537323
leaf_count=11137 10855
internal_value=-2.00439e-05
internal_weight=3373.45
internal_count=21992
is_linear=0
shrinkage=0.05


Tree=21
num_leaves=2
num_cat=0
split_feature=34
split_gain=4809.92
threshold=3.5000000000000004
decision_type=2
left_child=-1
right_child=-2
leaf_value=0.060766233020437703 -0.061117224387871316
leaf_weight=1626.9251430928707 1608.9635049551725
leaf_count=11140 10793
internal_value=0.000162618
internal_weight=3235.89
internal_count=21933
is_linear=0
shrinkage=0.05


Tree=22
num_leaves=2
num_cat=0
split_feature=34
split_gain=4558.02
threshold=3.5000000000000004
decision_type=2
left_child=-1
right_child=-2
leaf_value=0.060128751458826096 -0.060454773402584316
leaf_weight=1565.8739037364721 1566.8553177714348
leaf_count=11156 10933
internal_value=-0.000181945
internal_weight=3132.73
internal_count=22089
is_linear=0
shrinkage=0.05


Tree=23
num_leaves=2
num_cat=0
split_feature=34
split_gain=4287.62
threshold=3.5000000000000004
decision_type=2
left_child=-1
right_child=-2
leaf_value=0.059534780729331174 -0.059840319170952221
leaf_weight=1505.8029590249062 1500.972000926733
leaf_count=11169 10899
internal_value=-5.69525e-05
internal_weight=3006.77
internal_count=22068
is_linear=0
shrinkage=0.05


Tree=24
num_leaves=2
num_cat=0
split_feature=34
split_gain=4036.57
threshold=3.5000000000000004
decision_type=2
left_child=-1
right_child=-2
leaf_value=0.05897929047289692 -0.059262511865100342
leaf_weight=1446.0322354584932 1439.1405446976423
leaf_count=11174 10885
internal_value=-4.89083e-07
internal_weight=2885.17
internal_count=22059
is_linear=0
shrinkage=0.05


Tree=25
num_leaves=2
num_cat=0
split_feature=34
split_gain=3798.45
threshold=3.5000000000000004
decision_type=2
left_child=-1
right_child=-2
leaf_value=0.058462590665793325 -0.058727499393466165
leaf_weight=1385.42548687011 1378.4169281050563
leaf_count=11157 10862
internal_value=1.60295e-05
internal_weight=2763.84
internal_count=22019
is_linear=0
shrinkage=0.05


Tree=26
num_leaves=2
num_cat=0
split_feature=34
split_gain=3588.26
threshold=3.5000000000000004
decision_type=2
left_child=-1
right_child=-2
leaf_value=0.057978097677369271 -0.058224602434814976
leaf_weight=1332.6118233203888 1322.7884616181254
leaf_count=11191 10868
internal_value=9.15599e-05
internal_weight=2655.4
internal_count=22059
is_linear=0
shrinkage=0.05


Tree=27
num_leaves=2
num_cat=0
split_feature=34
split_gain=3381.91
threshold=3.5000000000000004
decision_type=2
left_child=-1
right_child=-2
leaf_value=0.057523990872979262 -0.057755721707722987
leaf_weight=1274.0843752622604 1268.7393732145429
leaf_count=11163 10872
internal_value=5.20008e-06
internal_weight=2542.82
internal_count=22035
is_linear=0
shrinkage=0.05


Tree=28
num_leaves=2
num_cat=0
split_feature=34
split_gain=3197.74
threshold=3.5000000000000004
decision_type=2
left_child=-1
right_child=-2
leaf_value=0.057099209343580093 -0.057316441622379768
leaf_weight=1221.9266024008393 1218.7926992401481
leaf_count=11174 10898
internal_value=-3.52354e-05
internal_weight=2440.72
internal_count=22072
is_linear=0
shrinkage=0.05


Tree=29
num_leaves=63
num_cat=0
split_feature=25 25 21 25 21 25 2 2 21 2 31 16 25 23 19 25 21 25 16 20 21 2 16 31 18 28 18 5 29 15 16 27 18 25 29 17 21 24 32 2 18 18 31 25 16 19 18 16 20 23 15 29 24 28 28 27 29 17 32 20 17 33
split_gain=323.643 59.6476 57.5167 20.1798 6.76356 6.12063 5.43697 4.8778 3.22539 2.92981 2.51195 1.90292 1.86188 1.85632 1.84998 1.83425 1.7754 1.55655 1.70384 1.65522 1.53195 1.49048 1.4338 1.56275 1.40188 1.3992 1.38884 1.3634 1.2669 1.24378 1.23912 1.55517 1.23381 1.19046 1.14737 1.1029 1.09822 1.06499 1.05642 1.04122 1.03376 1.01828 0.999705 0.995974 0.989432 0.988486 0.971953 0.971687 0.969784 0.955526 0.929469 1.07643 1.15088 0.891106 1.73201 0.957623 0.950944 0.883184 0.881691 0.871871 0.988024 0.869052
threshold=56.050000000000004 18.200000000000006 38.250000000000007 40.95000000000001 13.850000000000003 67.950000000000017 3.5000000000000004 3.5000000000000004 11.200000000000001 2.5000000000000004 34.45000000000001 13.726666666666668 8.4000000000000021 0.13500000000000004 2.5000000000000004 30.100000000000005 10.850000000000003 28.050000000000004 14.336833333333336 14.358500000000001 58.350000000000001 2.5000000000000004 143165585.8565 31.165000000000003 6.7350000000000012 47.765000000000008 6.6250000000000009 1.0000000180025095e-35 34.990000000000002 48.605000000000011 13.301 1.0000000180025095e-35 6.8150000000000004 33.600000000000001 34.260000000000012 143165587.99066672 11.950000000000001 1.0000000180025095e-35 0.18500000000000003 1.5000000000000002 6.6150000000000011 6.6650000000000009 41.32500000000001 60.150000000000006 13.554 2.5000000000000004 6.8950000000000005 143165589.15233335 16.066500000000001 0.10500000000000002 52.395000000000003 37.115000000000009 1.0000000180025095e-35 60.330000000000005 55.20000000000001 1.0000000180025095e-35 26.685000000000006 13.992000000000001 0.17500000000000002 15.027500000000002 15.158333333333333 -0.23999999999999908
decision_type=10 8 10 10 10 10 2 2 10 2 2 2 10 10 2 10 10 8 2 2 10 2 2 2 10 2 8 8 2 2 2 10 10 8 2 2 10 10 10 2 10 8 2 10 2 2 10 2 2 10 2 2 10 2 2 10 2 2 10 2 2 2
left_child=1 12 5 6 7 8 17 10 14 27 -5 36 -1 38 -2 -8 41 26 19 53 -4 25 -20 47 28 43 -3 46 -17 39 37 59 -33 35 45 -21 -9 -11 -6 -16 61 -12 -28 48 57 -27 -7 -24 -10 -39 -46 52 -52 54 55 -19 -57 -43 -31 -32 -61 -36
right_child=2 3 20 4 13 9 15 11 21 30 16 -13 -14 -15 29 24 -18 18 22 33 -22 -23 23 -25 -26 34 42 -29 -30 58 31 32 -34 -35 40 -37 -38 49 -40 -41 -42 44 -44 -45 50 -47 -48 -49 -50 -51 51 -53 -54 -55 -56 56 -58 -59 -60 60 -62 -63
leaf_value=-0.043034120650645123 0.0099825729538825497 0.0036838785648752696 0.034700610036976824 -0.0063172404155200845 0.014450266478204049 0.027784972212977262 -0.027366725147421285 -0.0082501836903014925 0.018965913627436395 0.030390592772026933 0.013221807047832563 -0.017090568973519182 -0.033025367932674014 -0.0036880145491431193 0.0042299560609627548 -0.014407277549020167 0.015746730268252358 -0.015157874446253465 -0.020944034337462818 0.0027930725388985583 0.043066734450836835 0.0089951053527870702 -0.0056034518602473731 -0.0028700660801916074 -0.020345035960316858 -0.0085649596636778024 -0.021021133855353025 0.0058665067982561362 0.011243629937375932 0.0070934420931490112 0.011572885236112662 0.012364199929860126 -0.0038824096803967696 0.010356589058548193 0.014894973871343906 -0.023748424740016923 0.011615162043680058 0.020812087945154822 -0.0017389001587935875 -0.015419484120987393 0.020041724172404008 -0.0055845771104438462 -0.0088367822083709711 0.026939442776004258 -0.018495690707504918 0.010792299723280609 0.010780080487065039 -0.033862578928949442 -0.00494587306133516 -0.0013286903565582243 -0.0024641792091789714 -0.014287903627872739 0.019236840223726678 -0.024813149974797999 0.0075383677822774137 0.0087073064480536668 -0.0098048347472894353 0.013906754087651546 -0.011594475860966387 0.038669243392640273 0.01358672843615634 -0.0086885718206189972
leaf_weight=116.29249952733517 52.699373513460159 7.0484358519315711 131.18641728162766 132.58741143345833 65.241343311965466 111.67170232534409 112.22203192859888 56.011764161288738 13.039843812584879 18.661880850791931 12.447338961064814 100.02614913135767 125.32739431411028 24.326919317245483 9.0649053230881709 12.383765295147898 23.412059016525745 51.29718691110611 52.891798205673695 9.5077005252242071 184.45718889683485 137.00818465650082 5.5566175132989866 34.243428364396095 115.85024959594011 10.197128728032114 93.090025007724762 9.3859712034463865 6.619230054318904 31.971365854144096 33.909130826592445 21.898115932941437 23.128941595554352 20.158162154257298 7.2095534801483154 5.44392505288124 7.0365878194570533 12.38539242744446 11.647796228528021 21.746747843921185 39.467467375099659 8.5599408373236674 23.074361704289913 39.648957632482052 9.8580398038029653 15.182873308658598 10.93057608604431 7.25508863478899 5.5722978785634032 7.4831304699182501 24.795291572809223 11.902735963463781 7.0328450053930274 8.3376008644700033 13.999451711773871 9.5061563923954981 19.760380610823631 14.600905917584894 6.8606793731451026 7.662445135414603 10.405308395624159 6.5435034334659559
leaf_count=1110 495 66 1262 1240 615 1062 1057 524 123 177 117 936 1185 228 85 116 220 480 495 89 1791 1288 52 321 1086 95 873 88 62 300 319 206 216 189 68 51 66 117 109 203 373 80 216 376 92 143 103 68 52 70 232 111 66 78 131 89 185 137 64 73 98 61
internal_value=0.000264089 -0.0155194 0.0221646 -0.0106301 -0.0032795 0.0137735 -0.0167717 -0.00614739 0.00978665 0.0196197 -0.00167485 -0.012821 -0.0380001 0.00823555 0.00300486 -0.0225052 0.00379864 -0.0127981 -0.0103538 -0.00667552 0.0397102 0.0127943 -0.0153164 -0.00868647 -0.018288 0.0165046 -0.0173973 0.0249655 -0.00535699 -0.00234174 0.014269 0.0110543 0.00411581 0.00264311 0.0118909 -0.00775371 -0.00588635 0.0218779 0.012007 -0.0096873 0.0160046 0.000522746 -0.018697 0.0224234 -0.00168036 0.00298512 0.0263684 -0.0228993 0.0119198 0.0128091 -0.0053897 -0.00208784 0.00277087 -0.00984988 -0.00828472 -0.011093 -0.00370283 0.00677003 0.00358355 0.016874 0.0256942 0.0038459
internal_weight=2338.73 1359.35 979.379 1117.73 509.487 663.735 608.246 408.271 396.213 267.523 245.197 163.075 241.62 101.216 122.343 247.075 112.609 361.17 237.957 138.011 315.644 273.87 99.9469 47.0551 134.853 136.862 123.213 131.988 19.003 69.6437 135.534 97.0039 45.0271 35.1098 78.6005 14.9516 63.0484 38.5304 76.8891 30.8117 53.2205 89.1971 116.164 58.2611 76.7498 25.38 122.602 12.8117 18.6121 19.8685 53.5889 43.7309 31.8281 102.901 94.5632 80.5637 29.2665 23.1608 38.832 51.9769 18.0678 13.7531
internal_count=22080 12772 9308 10477 4773 6255 5704 3821 3726 2529 2295 1526 2295 952 1147 2321 1055 3383 2228 1292 3053 2579 936 441 1264 1291 1155 1253 178 652 1276 912 422 329 740 140 590 364 724 288 502 835 1089 551 718 238 1165 120 175 187 501 409 298 963 885 754 274 217 364 490 171 129
is_linear=0
shrinkage=0.05


Tree=30
num_leaves=2
num_cat=0
split_feature=34
split_gain=2981.45
threshold=3.5000000000000004
decision_type=2
left_child=-1
right_child=-2
leaf_value=0.056641432538581074 -0.056842881579179751
leaf_weight=1159.275726556778 1153.7600645571947
leaf_count=11157 10853
internal_value=3.44808e-05
internal_weight=2313.04
internal_count=22010
is_linear=0
shrinkage=0.05


Tree=31
num_leaves=2
num_cat=0
split_feature=34
split_gain=2828.64
threshold=3.5000000000000004
decision_type=2
left_child=-1
right_child=-2
leaf_value=0.056272217323495848 -0.056459500542450504
leaf_weight=1113.1051983609796 1110.6926246806979
leaf_count=11189 10913
internal_value=-3.25605e-05
internal_weight=2223.8
internal_count=22102
is_linear=0
shrinkage=0.05


Tree=32
num_leaves=2
num_cat=0
split_feature=34
split_gain=2651.94
threshold=3.5000000000000004
decision_type=2
left_child=-1
right_child=-2
leaf_value=0.055923139807459533 -0.056101127320954958
leaf_weight=1055.0223534554243 1056.171472735703
leaf_count=11083 10840
internal_value=-0.000119509
internal_weight=2111.19
internal_count=21923
is_linear=0
shrinkage=0.05


Tree=33
num_leaves=2
num_cat=0
split_feature=34
split_gain=2513.4
threshold=3.5000000000000004
decision_type=2
left_child=-1
right_child=-2
leaf_value=0.055594590126586033 -0.055762823639948111
leaf_weight=1011.479033395648 1013.3788930624723
leaf_count=11109 10871
internal_value=-0.000136374
internal_weight=2024.86
internal_count=21980
is_linear=0
shrinkage=0.05


Tree=34
num_leaves=2
num_cat=0
split_feature=34
split_gain=2382.52
threshold=3.5000000000000004
decision_type=2
left_child=-1
right_child=-2
leaf_value=0.055288613423797831 -0.055445359602154791
leaf_weight=973.97737766802311 967.05828645825386
leaf_count=11183 10845
internal_value=0.000118848
internal_weight=1941.04
internal_count=22028
is_linear=0
shrinkage=0.05


Tree=35
num_leaves=2
num_cat=0
split_feature=34
split_gain=2255.73
threshold=3.5000000000000004
decision_type=2
left_child=-1
right_child=-2
leaf_value=0.054999974694781323 -0.055146541375866255
leaf_weight=933.29561607539654 924.03571800142527
leaf_count=11206 10836
internal_value=0.000201102
internal_weight=1857.33
internal_count=22042
is_linear=0
shrinkage=0.05


Tree=36
num_leaves=2
num_cat=0
split_feature=34
split_gain=2137.23
threshold=3.5000000000000004
decision_type=2
left_child=-1
right_child=-2
leaf_value=0.054725853353730293 -0.054863702774243905
leaf_weight=895.17119406908751 882.48072645068169
leaf_count=11247 10827
internal_value=0.000321991
internal_weight=1777.65
internal_count=22074
is_linear=0
shrinkage=0.05


Tree=37
num_leaves=2
num_cat=0
split_feature=34
split_gain=2022.49
threshold=3.5000000000000004
decision_type=2
left_child=-1
right_child=-2
leaf_value=0.054468387953349663 -0.054599981347941709
leaf_weight=850.01110760122538 848.1444746106863
leaf_count=11175 10885
internal_value=-5.92607e-06
internal_weight=1698.16
internal_count=22060
is_linear=0
shrinkage=0.05


Tree=38
num_leaves=2
num_cat=0
split_feature=34
split_gain=1913.17
threshold=3.5000000000000004
decision_type=2
left_child=-1
right_child=-2
leaf_value=0.054225715404467002 -0.05434901925255075
leaf_weight=813.77730842679739 807.16173359006643
leaf_count=11198 10842
internal_value=0.000159738
internal_weight=1620.94
internal_count=22040
is_linear=0
shrinkage=0.05


Tree=39
num_leaves=2
num_cat=0
split_feature=34
split_gain=1808.28
threshold=3.5000000000000004
decision_type=2
left_child=-1
right_child=-2
leaf_value=0.053996507995306066 -0.05411312489477469
leaf_weight=771.77261321246624 773.39518705010414
leaf_count=11117 10874
internal_value=-0.000115072
internal_weight=1545.17
internal_count=21991
is_linear=0
shrinkage=0.05


Tree=40
num_leaves=2
num_cat=0
split_feature=34
split_gain=1712.15
threshold=3.5000000000000004
decision_type=2
left_child=-1
right_child=-2
leaf_value=0.053779029296866634 -0.053889344860623412
leaf_weight=735.90805916488171 739.04358242452145
leaf_count=11102 10881
internal_value=-0.000169561
internal_weight=1474.95
internal_count=21983
is_linear=0
shrinkage=0.05


Tree=41
num_leaves=2
num_cat=0
split_feature=34
split_gain=1633.32
threshold=3.5000000000000004
decision_type=2
left_child=-1
right_child=-2
leaf_value=0.053575843878435329 -0.053679242760005366
leaf_weight=708.55658204108477 709.27343310788274
leaf_count=11193 10935
internal_value=-7.88307e-05
internal_weight=1417.83
internal_count=22128
is_linear=0
shrinkage=0.05


Tree=42
num_leaves=63
num_cat=0
split_feature=25 21 25 25 2 25 2 25 2 21 21 21 21 23 25 25 16 20 18 18 25 18 31 17 16 15 21 31 18 31 33 17 21 29 28 21 29 16 25 29 20 17 16 16 28 32 17 23 20 16 29 25 28 29 15 15 27 22 21 2 20 16
split_gain=150.345 37.8625 23.6616 5.96534 4.55249 2.78701 2.48073 2.23234 1.9906 1.48548 1.15141 1.0571 0.968158 0.934205 0.913536 0.697068 0.871049 0.882545 0.799135 0.608069 0.602823 0.635432 0.594905 0.783845 0.594603 0.77596 0.587719 0.586134 0.597811 0.558306 0.550377 0.587446 0.54791 0.666839 0.530917 0.530382 0.551747 0.671529 0.605026 0.524562 0.5241 0.505078 0.499821 0.48525 0.48434 0.470946 0.457572 0.791325 0.451433 0.444077 0.437988 0.4325 0.430136 0.452499 0.410008 0.406075 0.403176 0.614781 0.434654 0.394467 0.446493 0.390274
threshold=49.550000000000004 38.250000000000007 18.200000000000006 60.95000000000001 3.5000000000000004 40.95000000000001 2.5000000000000004 30.100000000000005 2.5000000000000004 6.5500000000000007 13.850000000000003 53.20000000000001 4.9000000000000012 0.00025000000000000006 8.4000000000000021 28.050000000000004 14.336833333333336 14.8855 6.6150000000000011 6.7350000000000012 67.950000000000017 6.8950000000000005 45.015000000000008 143165590.98033336 143165585.8565 48.845000000000006 10.850000000000003 41.32500000000001 6.955000000000001 20.865000000000002 -143165576.46166661 13.191000000000001 13.050000000000002 29.245000000000005 50.560000000000009 13.950000000000001 29.425000000000004 13.74666666666667 54.850000000000001 29.855000000000004 12.141500000000002 9.8495000000000008 13.9 143165590.30950004 54.570000000000007 0.16500000000000004 14.033333333333335 0.12500000000000003 16.985500000000005 13.954166666666667 30.925000000000004 56.050000000000004 52.790000000000006 40.685000000000009 42.055000000000007 50.985000000000007 1.0000000180025095e-35 1.0000000180025095e-35 19.050000000000004 1.5000000000000002 15.336500000000003 14.619666666666669
decision_type=10 10 8 10 2 10 2 10 2 10 10 10 10 10 10 8 2 2 8 10 10 8 2 2 2 2 10 2 10 2 2 2 10 2 2 10 2 2 10 2 2 2 2 2 2 10 2 8 2 2 2 10 2 2 2 2 10 10 10 2 2 2
left_child=2 3 14 6 5 15 32 55 12 51 19 -3 -5 52 -1 18 17 49 -4 45 -14 -22 23 30 -18 -26 59 28 -20 -23 -10 -32 33 54 56 36 41 -38 -39 -37 -28 -11 -21 -36 -35 50 -34 61 -27 -17 -9 -8 -7 -54 -2 -6 -33 -58 -59 60 -15 -48
right_child=1 11 4 8 7 13 9 10 22 35 -12 -13 20 26 -16 16 24 -19 27 42 21 29 -24 -25 25 48 40 -29 -30 -31 31 34 46 44 43 39 37 38 -40 -41 -42 -43 -44 -45 -46 -47 47 -49 -50 -51 -52 -53 53 -55 -56 -57 57 58 -60 -61 -62 -63
leaf_value=-0.040194736689553388 0.0081402747424632327 0.028988923653875648 0.0072919572718875975 -0.0060069589445714919 -0.029719043359780428 -0.015195152025122245 -0.014576352349312718 -0.025219723006522643 0.019805847332833068 0.0078883901925318606 0.0029713330974677262 0.039047240391988147 0.01491063962327382 -0.0014759462787819601 -0.030254996703145756 -0.0098913896507253282 -0.018661400144216973 0.0042566720763217766 -0.020284384232152262 -0.012569355951528319 0.025431926357071623 -0.0023808137388180747 0.0220088351324218 -0.0031966734888443887 -0.019008667735736867 0.003531515317860653 -0.0042355590194053079 -0.0065060447305370223 0.0015728895221327893 0.01766187587785201 0.014528424193593292 0.0070540085177856733 0.018897004661482825 0.012983986149623931 0.013137688783195954 0.013983323463508805 0.010018330988519232 -0.0096864956221865712 0.005008693194645605 0.001960054784424404 0.011880514133216891 -0.012402282614331069 -0.01978057498758962 -0.0019202833101874851 0.0017584676203935487 0.0022841233504994041 0.022131236162589076 -0.00346263370965679 -0.013160737426263936 0.0033321508477767766 -0.0038349428330571459 -0.0015791827604545344 0.0084628732455123076 -0.012612185822161052 -0.0078029693972477944 -0.019573240401783411 -0.01212581484981815 -0.0049648832056751642 0.013363668548088337 -0.0043638284226486792 0.015054612139970756 0.0048185186553579666
leaf_weight=66.682759948074818 5.0893661603331593 55.794668693095446 3.1070181727409354 3.4891674146056166 35.998051520437002 14.018080350011589 20.949249494820837 3.5139716900885123 12.883411500602959 3.1105882003903416 8.8595757484436017 122.65120276063681 59.609058488160372 10.537621520459654 74.017584305256605 56.493555229157209 30.940925154834986 16.632803726941347 51.396867670118809 52.532716419547796 53.408533707261086 3.9912624731659916 9.0526111871004087 11.59819185361266 9.146097484976055 12.633904397487642 6.3363105133175877 12.943084657192228 3.1798457168042651 17.83140068128705 31.837459411472082 20.454133275896311 20.137888099998236 27.219410020858049 30.491486299782991 13.014851652085779 14.909730862826107 14.063551623374225 12.22533508017659 26.870254054665565 17.574696384370327 14.165055334568022 63.831109393388033 6.1620326563715926 15.103837370872496 8.406569439917801 7.579013470560314 8.8501075431704503 4.7782139331102362 6.6514459364116183 6.038245365023613 9.4094010777771455 4.780924588441847 3.5582881383597851 11.166754692792891 27.720745660364628 8.5716363228857535 5.4070663638412935 5.8009921349585056 38.393356841057539 5.5128589086234561 6.3747268281877041
leaf_count=1128 82 937 50 56 592 225 337 57 210 50 143 2107 971 169 1223 909 500 268 833 847 883 64 148 186 148 203 102 208 51 292 517 331 328 440 494 211 240 226 197 433 284 227 1032 99 243 135 124 142 77 107 97 151 77 57 179 451 137 87 94 616 89 103
internal_value=1.80754e-05 0.0163146 -0.0170982 0.00935256 -0.0120946 -0.00820385 0.00336609 -0.0178307 0.0142354 -0.00124666 -0.0141857 0.0360814 0.0185257 -0.00135728 -0.0352162 -0.0114981 -0.00929267 -0.00579538 -0.0155951 -0.0153309 0.0192001 0.0223587 0.00996339 0.00898689 -0.013963 -0.00801071 0.001244 -0.0167394 -0.0190055 0.0140525 0.0101655 0.00885304 0.00916968 0.00586362 0.00634663 0.0017579 -0.00127682 0.0018891 -0.00291955 0.00612941 0.00761124 -0.00851709 -0.0166599 0.0106224 0.00911101 -0.00629506 0.0134436 0.00803618 -0.00151516 -0.00846824 -0.0133462 -0.0107268 -0.0101368 -0.000917288 -0.00262908 -0.0256758 0.00228816 -0.00274249 0.00483909 -0.00163925 0.00475175 0.0150731
internal_weight=1345.49 689.273 656.217 510.828 515.517 308.616 230.239 206.901 280.588 128.718 143.182 178.446 138.329 100.712 140.7 207.904 137.277 79.7778 70.6268 134.323 134.84 75.2312 142.259 133.206 57.4991 26.5582 78.3548 67.5198 54.5767 21.8227 121.608 108.725 101.521 58.5794 76.8873 98.3594 58.4743 41.1986 26.2889 39.8851 23.911 17.2756 116.364 36.6535 42.3232 17.9588 42.9417 22.8038 17.4121 63.145 9.55222 30.3587 22.3573 8.33921 16.2561 63.7188 40.2338 19.7797 11.2081 54.4438 16.0505 13.9537
internal_count=22004 11326 10678 8282 8327 4973 3713 3354 4569 2072 2311 3044 2266 1619 2351 3354 2212 1284 1142 2168 2210 1239 2303 2155 928 428 1260 1092 884 356 1969 1759 1641 944 1242 1584 940 663 423 644 386 277 1879 593 683 289 697 369 280 1016 154 488 359 134 261 1043 649 318 181 874 258 227
is_linear=0
shrinkage=0.05


Tree=43
num_leaves=2
num_cat=0
split_feature=34
split_gain=1526.2
threshold=3.5000000000000004
decision_type=2
left_child=-1
right_child=-2
leaf_value=0.053356385998943837 -0.05345268094921457
leaf_weight=667.80851528793573 668.00433574989438
leaf_count=11142 10875
internal_value=-5.60064e-05
internal_weight=1335.81
internal_count=22017
is_linear=0
shrinkage=0.05


Tree=44
num_leaves=2
num_cat=0
split_feature=34
split_gain=1451.1
threshold=3.5000000000000004
decision_type=2
left_child=-1
right_child=-2
leaf_value=0.053175690708351965 -0.053265904689907106
leaf_weight=639.42757754400373 639.35169260948896
leaf_count=11175 10904
internal_value=-4.19865e-05
internal_weight=1278.78
internal_count=22079
is_linear=0
shrinkage=0.05


Tree=45
num_leaves=63
num_cat=0
split_feature=25 21 25 25 2 21 25 25 2 2 2 21 25 21 32 20 1 31 21 22 17 22 23 23 33 21 30 16 30 17 2 29 28 16 17 31 23 15 2 5 21 20 2 17 2 16 33 17 25 33 16 28 29 22 20 20 25 31 25 25 26 32
split_gain=121.65 31.1783 19.3926 5.43618 3.589 2.73751 1.88961 1.82506 1.65411 1.23117 1.18484 1.08446 1.03922 0.864588 0.798747 0.720887 0.658234 0.657176 0.614497 0.57666 0.574972 0.559536 0.541665 0.533962 0.501135 0.499936 0.499004 0.484464 0.466597 0.477982 0.459433 0.440301 0.433844 0.482585 0.432433 0.423377 0.421943 0.418714 0.417406 0.414447 0.410751 0.404184 0.422853 0.391575 0.390508 0.443909 0.387065 0.37674 0.576632 0.42458 0.376699 0.37563 1.03457 0.474781 0.374464 0.579299 0.385061 0.372484 0.369481 0.359225 0.351257 0.349634
threshold=49.550000000000004 38.250000000000007 18.200000000000006 67.950000000000017 3.5000000000000004 6.3500000000000005 40.95000000000001 34.250000000000007 2.5000000000000004 4.5000000000000009 4.5000000000000009 50.500000000000007 11.250000000000002 13.850000000000003 0.17500000000000002 15.336500000000003 1.5000000000000002 36.935000000000009 13.15 1.5000000000000002 14.122166666666669 1.0000000180025095e-35 0.21500000000000002 0.025000000000000005 1.2168333333333339 13.750000000000002 1.0000000180025095e-35 13.624000000000001 1.5000000000000002 14.866999999999999 4.5000000000000009 31.950000000000006 49.880000000000003 13.377000000000001 15.213500000000002 40.445000000000007 0.24500000000000002 47.230000000000011 5.5000000000000009 1.0000000180025095e-35 7.0000000000000009 16.301000000000002 1.5000000000000002 13.584333333333335 2.5000000000000004 12.946833333333336 -0.93600000000000105 13.136333333333335 62.350000000000009 0.55833333333333279 16.255833333333335 33.555000000000007 27.150000000000002 1.0000000180025095e-35 13.879500000000002 9.8355000000000015 57.750000000000007 38.995000000000012 78.15000000000002 54.45000000000001 1.5000000000000002 0.18500000000000003
decision_type=10 10 8 10 2 10 10 10 2 2 2 10 10 10 10 2 2 2 10 10 2 10 8 8 2 10 10 2 10 2 2 2 2 2 2 2 8 2 2 8 10 2 2 2 2 2 2 2 8 2 2 2 2 10 2 2 10 2 10 8 2 10
left_child=2 3 12 5 6 9 14 17 25 22 35 -3 -1 38 37 18 28 30 21 47 -15 50 51 26 -17 34 27 -16 29 -10 -6 -24 33 -12 39 44 -36 -4 -9 61 -19 -26 -43 -39 57 -46 -20 48 49 -18 -8 -2 -53 -54 55 -21 -56 -5 -13 -51 -25 -7
right_child=1 11 4 10 7 8 15 13 16 -11 32 58 -14 20 23 24 19 40 46 54 -22 -23 31 60 41 -27 -28 -29 -30 -31 -32 -33 -34 -35 36 -37 -38 43 -40 -41 -42 42 -44 -45 45 -47 -48 -49 -50 59 -52 52 53 -55 56 -57 -58 -59 -60 -61 -62 -63
leaf_value=-0.037660013515182389 0.014666933578425752 0.025879663016563404 -0.011780187079678511 0.021298370896542212 -0.018962228128549353 0.014560262943778372 -0.013296573509112161 -0.011660799322114959 -0.0046063299649399267 -0.020099489399273571 0.013452054386198328 0.022407177911104803 -0.026685025916353647 0.017190554007306954 -0.001372646656032107 0.010317513174558432 0.01307812053024072 -0.01683518615110929 0.015824261282237503 0.013935103241453476 -0.007444054419221015 -8.3364610979359116e-05 -0.021182537689216251 -0.023510220434515387 0.010375887872765818 0.014279736712252609 0.0053644137308030207 -0.018259108873041493 0.016893427049170878 0.014320468435074788 -0.029788315927826117 5.3117625066170928e-05 0.012418161659456382 -0.0077880900674628037 0.0052705009646403034 0.026045882919928633 -0.011500703873414897 -5.7232190436114337e-05 -0.020822351644488271 -0.0037173095461444528 0.0011610208577352294 0.0043179763541767715 -0.018043189627220926 -0.0078737300256132674 0.021494157615027872 0.0091908647280539209 -0.0014639755405718696 -0.002748697556314449 0.019611851536373875 -0.015069151350150795 -0.00084429387377583833 -0.020208441892623986 -0.00084037776400304486 0.013502126965519716 0.0017237982816712201 -0.0034147474116672525 0.015716675244849144 0.0036292562572160536 0.038106287529352544 0.0023691480516018094 -0.013815585447682209 -0.0013234283002322965
leaf_weight=74.086125370115042 3.861394338309764 40.398302398622036 39.775508634746075 51.416429821401834 27.039363130927086 28.757285375148058 26.926382098346949 82.933333646506071 7.4056094996631163 9.8822681009769422 2.8935707770288008 9.1288015581667405 51.140271190553904 3.2047100961208335 7.4162501357495847 16.062515232712034 3.5353632792830494 20.02327544987202 4.2193981744348994 5.7864224687218693 4.524055078625679 19.776954565197229 4.3654473349452001 16.486507333815098 2.8029482811689359 71.11153256893158 5.2731421105563632 9.5197002142667753 13.280027035623787 4.6035978943109512 31.900470517575741 4.4691382870078087 11.568344313651322 7.5720978006720543 16.876649312675003 22.003393933176994 3.7640027292072764 24.064132135361433 16.593175120651722 3.870961543172597 3.5878766551613799 2.9928122498095036 4.2757009118795395 47.034615103155375 10.600283440202473 29.484584257006645 8.1326259188353998 55.851743668317795 4.1770826689898959 4.0256756618618939 7.9424724653363219 4.4113389365375069 17.540324836969379 7.5218115113675585 7.7475661635398891 15.6369132399559 13.875837210565804 3.6470275521278372 111.11220433562994 6.6152803376317033 41.025968786329031 3.7416234090924254
leaf_count=1406 68 753 707 938 488 514 475 1471 130 175 52 170 939 57 131 285 63 359 75 103 80 349 77 295 50 1276 93 170 237 82 583 79 207 133 299 403 66 426 297 68 63 53 75 834 192 525 144 987 75 71 140 78 310 134 137 276 248 65 2152 117 730 66
internal_value=8.91082e-05 0.0155528 -0.0159879 0.00891614 -0.0113159 0.00532469 -0.00771097 -0.016636 0.00734124 -0.00510186 0.0171458 0.0344626 -0.0334249 -0.0121371 -0.0105519 -0.00184669 0.0035968 -0.022266 -0.00457932 0.0019748 0.0035698 -0.00683982 -0.00120304 -0.0143915 0.00506937 0.011447 -0.0073239 -0.0113533 0.010756 0.00319213 -0.0252209 -0.011527 0.00615142 -0.00125451 0.00772828 0.0191441 0.00182201 -0.00768711 -0.0133802 0.0109418 -0.0141645 -0.00347656 -0.00942728 -0.00526564 0.0172938 0.0128884 0.00518447 -0.000706241 0.00533008 0.000106949 -0.0105628 0.00178911 -0.000323987 0.0038171 0.00650755 0.0016839 0.0110009 0.0202137 0.037109 -0.00495586 -0.0169489 0.0127466
internal_weight=1221.3 622.54 598.76 461.901 473.534 322.715 283.728 189.806 270.663 52.0517 139.186 160.639 125.226 107.255 190.596 93.1318 142.541 82.551 66.9978 117.252 7.72877 54.6458 42.1695 79.7216 26.134 128.122 22.2091 16.936 25.2892 12.0092 58.9398 8.83459 22.034 10.4657 57.0105 117.152 20.6407 110.874 99.5265 36.3699 23.6112 10.0715 7.26851 71.0987 95.1483 40.0849 12.352 74.2051 18.3534 14.1763 34.8689 33.3349 29.4735 25.0621 43.0467 21.4233 21.6234 55.0635 120.241 10.641 57.5125 32.4989
internal_count=22101 11326 10775 8251 8430 5736 5032 3398 4815 921 2515 3075 2345 1905 3386 1646 2526 1493 1183 2077 137 964 746 1419 463 2289 394 301 449 212 1071 156 392 185 1013 2123 365 1967 1768 648 422 178 128 1260 1720 717 219 1313 326 251 615 590 522 444 764 379 385 1003 2322 188 1025 580
is_linear=0
shrinkage=0.05


Tree=46
num_leaves=2
num_cat=0
split_feature=34
split_gain=1359.9
threshold=3.5000000000000004
decision_type=2
left_child=-1
right_child=-2
leaf_value=0.052984178063793991 -0.053067916476900651
leaf_weight=604.6978198364377 602.42138601094484
leaf_count=11161 10848
internal_value=5.8012e-05
internal_weight=1207.12
internal_count=22009
is_linear=0
shrinkage=0.05


Tree=47
num_leaves=2
num_cat=0
split_feature=34
split_gain=1292.85
threshold=3.5000000000000004
decision_type=2
left_child=-1
right_child=-2
leaf_value=0.05282392388316557 -0.052903057758180029
leaf_weight=579.24504968896508 575.34702682867646
leaf_count=11200 10852
internal_value=0.000138717
internal_weight=1154.59
internal_count=22052
is_linear=0
shrinkage=0.05


Tree=48
num_leaves=2
num_cat=0
split_feature=34
split_gain=1224.02
threshold=3.5000000000000004
decision_type=2
left_child=-1
right_child=-2
leaf_value=0.052668348903278844 -0.052743675332161344
leaf_weight=550.2556825466454 549.30952652171254
leaf_count=11157 10864
internal_value=7.61393e-06
internal_weight=1099.57
internal_count=22021
is_linear=0
shrinkage=0.05


Tree=49
num_leaves=2
num_cat=0
split_feature=34
split_gain=1159.58
threshold=3.5000000000000004
decision_type=2
left_child=-1
right_child=-2
leaf_value=0.052522817949545067 -0.052592584875886451
leaf_weight=523.4472972638905 524.01954233646393
leaf_count=11125 10868
internal_value=-6.36023e-05
internal_weight=1047.47
internal_count=21993
is_linear=0
shrinkage=0.05


Tree=50
num_leaves=2
num_cat=0
split_feature=34
split_gain=1103.92
threshold=3.5000000000000004
decision_type=2
left_child=-1
right_child=-2
leaf_value=0.052383883119584189 -0.052452733812016851
leaf_weight=502.65349970385432 499.76284920051694
leaf_count=11205 10858
internal_value=0.000116547
internal_weight=1002.42
internal_count=22063
is_linear=0
shrinkage=0.05


Tree=51
num_leaves=2
num_cat=0
split_feature=34
split_gain=1040.8
threshold=3.5000000000000004
decision_type=2
left_child=-1
right_child=-2
leaf_value=0.05225200030477322 -0.052314836376878393
leaf_weight=476.11066790297627 473.77004300057888
leaf_count=11128 10801
internal_value=9.72463e-05
internal_weight=949.881
internal_count=21929
is_linear=0
shrinkage=0.05


Tree=52
num_leaves=2
num_cat=0
split_feature=34
split_gain=994.09
threshold=3.5000000000000004
decision_type=2
left_child=-1
right_child=-2
leaf_value=0.052127729271313587 -0.05218749479309015
leaf_weight=454.97847478464246 456.56999433785677
leaf_count=11150 10916
internal_value=-0.00012088
internal_weight=911.548
internal_count=22066
is_linear=0
shrinkage=0.05


Tree=53
num_leaves=2
num_cat=0
split_feature=34
split_gain=945.303
threshold=3.5000000000000004
decision_type=2
left_child=-1
right_child=-2
leaf_value=0.05200795985889483 -0.052066275497163687
leaf_weight=435.13524563238025 435.60419106855989
leaf_count=11190 10919
internal_value=-5.71842e-05
internal_weight=870.739
internal_count=22109
is_linear=0
shrinkage=0.05


Tree=54
num_leaves=2
num_cat=0
split_feature=34
split_gain=895.352
threshold=3.5000000000000004
decision_type=2
left_child=-1
right_child=-2
leaf_value=0.051894277015914793 -0.051948869081387551
leaf_weight=413.92140808328986 414.38516731932759
leaf_count=11167 10899
internal_value=-5.63642e-05
internal_weight=828.307
internal_count=22066
is_linear=0
shrinkage=0.05


Tree=55
num_leaves=2
num_cat=0
split_feature=34
split_gain=851.319
threshold=3.5000000000000004
decision_type=2
left_child=-1
right_child=-2
leaf_value=0.051787240260402892 -0.051837901980736727
leaf_weight=396.41407507285476 394.3886221498251
leaf_count=11218 10882
internal_value=0.000107175
internal_weight=790.803
internal_count=22100
is_linear=0
shrinkage=0.05


Tree=56
num_leaves=2
num_cat=0
split_feature=34
split_gain=809.115
threshold=3.5000000000000004
decision_type=2
left_child=-1
right_child=-2
leaf_value=0.051683400941706974 -0.051732757571911162
leaf_weight=377.5656828135252 376.9769962541759
leaf_count=11216 10913
internal_value=1.55777e-05
internal_weight=754.543
internal_count=22129
is_linear=0
shrinkage=0.05


Tree=57
num_leaves=63
num_cat=0
split_feature=25 25 21 25 21 25 2 2 2 2 29 30 21 21 25 25 31 23 25 18 1 28 15 20 18 17 25 29 20 16 16 32 25 33 28 29 32 30 2 28 16 17 18 23 25 27 21 15 33 33 18 21 18 31 2 18 16 15 21 23 22 18
split_gain=63.3602 12.7838 12.7112 3.71425 1.58061 1.23833 1.05422 0.881812 0.641985 0.547119 0.486401 0.4493 0.406172 0.394108 0.382981 0.359208 0.357971 0.405864 0.395679 0.342966 0.383693 0.317992 0.308889 0.32046 0.298746 0.296584 0.297139 0.29147 0.275275 0.268518 0.284853 0.267029 0.424884 0.303261 0.28791 0.311806 0.26171 0.251987 0.248363 0.236031 0.329928 0.261181 0.233991 0.226781 0.225042 0.223001 0.23166 0.208621 0.201063 0.210301 0.198327 0.197051 0.197013 0.262956 0.22981 0.193311 0.193104 0.21523 0.213947 0.221502 0.190366 0.208301
threshold=56.050000000000004 18.200000000000006 38.500000000000007 41.500000000000007 13.850000000000003 67.950000000000017 3.5000000000000004 3.5000000000000004 4.5000000000000009 4.5000000000000009 27.150000000000002 1.0000000180025095e-35 4.9000000000000012 10.350000000000003 34.250000000000007 79.350000000000009 33.405000000000008 0.045000000000000005 32.350000000000001 6.7950000000000008 2.5000000000000004 39.535000000000004 63.735000000000007 13.855500000000001 6.6850000000000014 14.444000000000001 47.750000000000007 31.885000000000002 16.9145 13.554 12.924666666666667 0.14500000000000005 59.550000000000004 -0.71383333333333276 54.245000000000012 38.990000000000002 0.16500000000000004 1.0000000180025095e-35 4.5000000000000009 49.880000000000003 13.377000000000001 15.432833333333333 6.6750000000000007 0.00055000000000000003 11.250000000000002 1.0000000180025095e-35 16.250000000000004 54.775000000000006 -2.1706666666666674 0.90849999999999842 6.785000000000001 6.2500000000000009 6.8950000000000005 20.865000000000002 2.5000000000000004 6.7750000000000012 13.726666666666668 60.990000000000002 11.950000000000001 0.015000000000000001 1.5000000000000002 6.6450000000000005
decision_type=10 8 10 10 10 10 2 2 2 2 2 10 10 10 10 10 2 8 8 8 2 2 2 2 8 2 10 2 2 2 2 10 10 2 2 2 10 8 2 2 2 2 8 8 10 8 10 2 2 2 10 10 8 2 2 8 2 2 10 10 10 8
left_child=1 12 5 6 7 8 16 10 13 52 21 15 44 19 -8 -4 17 -3 29 20 -2 -5 23 -20 -12 26 -6 48 -22 30 -18 32 33 -15 -33 -36 42 -38 45 40 -11 -41 -25 -31 -1 -27 -47 -23 -21 -50 -34 -10 54 -54 -7 -32 58 -58 59 -9 61 -19
right_child=2 3 11 4 25 9 14 56 51 39 24 -13 -14 31 -16 -17 18 60 22 27 28 47 -24 36 -26 38 -28 -29 -30 43 55 34 50 -35 35 -37 37 -39 -40 41 -42 -43 -44 -45 -46 46 -48 -49 49 -51 -52 -53 53 -55 -56 -57 57 -59 -60 -61 -62 -63
leaf_value=-0.035958971615790036 0.0084654844493567329 -0.0063701532692084411 0.024441494597133476 -0.003343002368361288 0.00046491367358390937 0.0224119991776228 -0.020387469870053715 0.0012233025119489996 -0.012033837088568252 0.01291826052671524 0.0083201258284657988 0.0048303190499501547 -0.010785011647329194 0.0071097002105854597 -0.012273790469383559 0.03583097250002442 -0.010696386312866844 -0.0012991060097310872 -0.0094555887396991431 -0.0089019506126143209 -0.0021111318292445377 -0.023843111572052739 -0.014102272264627499 -0.0050644813623189153 -0.001028470635631498 0.011647191258417639 0.015682633121208229 0.015153060712254744 -0.021058728286653641 -0.00078422174914852944 0.014095824209222547 0.015428635426536393 0.0051672160021644107 -0.010608030116854241 -0.0033085413728930835 0.012328392789334364 -0.0079847622772657046 0.0072360852610489235 -0.0099842285029136026 0.018614903245702419 -0.008210480460941404 -0.0003150704748073894 0.012372962788483767 -0.015694119063077574 -0.026161356755769694 0.008357019171046939 -0.0082977956577178508 -0.002222463301680213 0.015006534962076296 -0.0028201922943175187 0.015660374036043118 0.0012931394857912558 9.0519356984361917e-05 0.014519212338181708 0.013864854280048165 -0.0036250158593780419 -0.014180392485929319 -0.00045136130123625399 0.0061795018260108964 -0.011168854976874859 0.00029801790688682267 -0.017550126665968627
leaf_weight=41.025730028748512 4.517994903028014 19.279560402035713 18.959647692739964 10.40948888286948 4.3587045371532502 28.545143384486437 49.054985400289297 4.7114277668297353 2.2556758895516422 1.7663395795971135 9.4164827652275545 1.736719587817787 3.5123050548136225 3.429269090294838 29.987502176314592 70.07886771298945 4.8289705365896243 2.270626299083232 6.0971115715801778 2.2538978047668934 6.4676543511450273 3.4736407808959475 3.8827159479260436 1.9024976305663592 46.734102539718151 5.471547678112981 11.844567218795417 7.2941249348223209 1.8943352252244947 3.0539789125323322 1.9674335643649099 35.776403684169054 11.060029959306123 4.4330499283969429 5.0897794738411886 6.2358733061701059 6.5247001461684677 3.3264022767543802 2.5047827661037436 3.7821120601147413 4.59791025146842 2.8908764086663723 7.2182832434773454 18.712238261476159 26.778215365484357 2.6766765657812366 3.8595204334706068 1.7831915654242037 2.3507826812565309 2.7475780434906483 8.8935399893671256 17.855600900948048 3.925118155777457 15.420054102316497 21.448833325877786 2.5376377552747726 26.729784391820434 3.2570203803479663 2.4442673847079268 12.181275792419909 1.7175772339105595 32.942949522286654
leaf_count=1353 136 577 605 310 130 893 1511 140 67 54 282 53 108 103 902 2353 145 68 182 67 193 104 117 57 1393 165 360 220 55 91 58 1087 332 131 151 189 195 99 74 116 136 86 215 564 844 81 114 53 71 82 271 533 117 472 652 76 804 97 73 365 51 996
internal_value=3.46091e-05 -0.0124731 0.0177176 -0.00846043 -0.0025697 0.0107271 -0.0130042 -0.0051376 0.00743964 0.01547 -0.0015576 0.0332104 -0.0316192 0.00902906 -0.0175011 0.0337041 -0.00982386 -0.0127306 -0.00693911 0.00373081 -0.00216165 -0.00905977 -0.00259607 -0.000341372 0.000657444 0.00740052 0.011854 0.00871959 -0.00819444 -0.0107753 -0.00322667 0.010901 0.00663211 -0.00294993 0.0132316 0.00560282 0.0029145 -0.00265196 0.00198456 0.00552583 -0.0013885 0.0114418 0.00859468 -0.0137285 -0.032526 0.00505684 -0.00127349 -0.0180365 0.00128692 0.00651236 0.0103683 -0.000700827 0.0172346 0.01174 0.0190888 0.00526867 -0.0102156 -0.0127519 -0.00584891 -0.00783744 -0.0157955 -0.016567
internal_weight=714.185 418.478 295.707 347.162 151.856 204.932 195.305 121.141 122.556 82.3764 71.8169 90.7752 71.3163 102.444 79.0425 89.0385 116.263 56.2107 60.052 27.5264 12.88 15.6663 28.9517 25.069 56.1506 30.7158 16.2033 14.6464 8.36199 31.1003 9.33404 74.9179 27.8159 7.86232 47.1021 11.3257 18.9719 9.8511 14.5125 13.0372 6.36425 6.67299 9.12078 21.7662 67.8039 12.0077 6.5362 5.25683 7.35226 5.09836 19.9536 20.1113 69.3391 19.3452 49.994 4.50507 49.3238 29.9868 19.337 16.8927 36.9312 35.2136
internal_count=21979 12754 9225 10449 4545 6214 5904 3621 3688 2526 2142 3011 2305 3088 2413 2958 3491 1692 1799 824 384 467 865 748 1675 924 490 440 248 934 279 2264 837 234 1427 340 566 294 434 392 190 202 272 655 2197 360 195 157 220 153 603 600 2134 589 1545 134 1479 901 578 505 1115 1064
is_linear=0
shrinkage=0.05


Tree=58
num_leaves=2
num_cat=0
split_feature=34
split_gain=760.367
threshold=3.5000000000000004
decision_type=2
left_child=-1
right_child=-2
leaf_value=0.051576496448449007 -0.051621241617771291
leaf_weight=356.04481604322791 355.93028957396746
leaf_count=11176 10894
internal_value=-1.41155e-05
internal_weight=711.975
internal_count=22070
is_linear=0
shrinkage=0.05


Tree=59
num_leaves=2
num_cat=0
split_feature=34
split_gain=721.96
threshold=3.5000000000000004
decision_type=2
left_child=-1
right_child=-2
leaf_value=0.051483118204502236 -0.051526300492446178
leaf_weight=338.89152798056602 339.50131979770958
leaf_count=11162 10901
internal_value=-6.78512e-05
internal_weight=678.393
internal_count=22063
is_linear=0
shrinkage=0.05


Tree=60
num_leaves=2
num_cat=0
split_feature=34
split_gain=685.455
threshold=3.5000000000000004
decision_type=2
left_child=-1
right_child=-2
leaf_value=0.051394048463598421 -0.051435740009793174
leaf_weight=323.30973978713155 322.93812855146825
leaf_count=11177 10874
internal_value=8.64139e-06
internal_weight=646.248
internal_count=22051
is_linear=0
shrinkage=0.05


Tree=61
num_leaves=2
num_cat=0
split_feature=34
split_gain=650.497
threshold=3.5000000000000004
decision_type=2
left_child=-1
right_child=-2
leaf_value=0.0513086717705388 -0.051348020101728654
leaf_weight=307.25572313554585 308.00878842361271
leaf_count=11145 10888
internal_value=-8.24285e-05
internal_weight=615.265
internal_count=22033
is_linear=0
shrinkage=0.05


Tree=62
num_leaves=2
num_cat=0
split_feature=34
split_gain=618.297
threshold=3.5000000000000004
decision_type=2
left_child=-1
right_child=-2
leaf_value=0.051226762158600073 -0.051264543923391095
leaf_weight=292.72868121787906 293.87710691615939
leaf_count=11146 10903
internal_value=-0.000119078
internal_weight=586.606
internal_count=22049
is_linear=0
shrinkage=0.05


Tree=63
num_leaves=2
num_cat=0
split_feature=34
split_gain=586.328
threshold=3.5000000000000004
decision_type=2
left_child=-1
right_child=-2
leaf_value=0.051148298795969042 -0.051182625886180513
leaf_weight=279.40772147104144 278.51478130742908
leaf_count=11171 10851
internal_value=6.45482e-05
internal_weight=557.923
internal_count=22022
is_linear=0
shrinkage=0.05


Tree=64
num_leaves=2
num_cat=0
split_feature=34
split_gain=558.336
threshold=3.5000000000000004
decision_type=2
left_child=-1
right_child=-2
leaf_value=0.051074514152920483 -0.051105957740704533
leaf_weight=267.21925898455083 265.5475044939667
leaf_count=11210 10859
internal_value=0.000144263
internal_weight=532.767
internal_count=22069
is_linear=0
shrinkage=0.05


Tree=65
num_leaves=2
num_cat=0
split_feature=34
split_gain=530.232
threshold=3.5000000000000004
decision_type=2
left_child=-1
right_child=-2
leaf_value=0.051001517109553952 -0.051031988437336917
leaf_weight=254.22289917431772 253.08745230361819
leaf_count=11201 10866
internal_value=9.86939e-05
internal_weight=507.31
internal_count=22067
is_linear=0
shrinkage=0.05


Tree=66
num_leaves=2
num_cat=0
split_feature=34
split_gain=503.425
threshold=3.5000000000000004
decision_type=2
left_child=-1
right_child=-2
leaf_value=0.050931814041146134 -0.050961743696646106
leaf_weight=241.13282652944326 241.75585239566863
leaf_count=11148 10894
internal_value=-8.05918e-05
internal_weight=482.889
internal_count=22042
is_linear=0
shrinkage=0.05


Tree=67
num_leaves=2
num_cat=0
split_feature=34
split_gain=476.815
threshold=3.5000000000000004
decision_type=2
left_child=-1
right_child=-2
leaf_value=0.050863384317575755 -0.050893004389517861
leaf_weight=228.92799792997539 229.56985369883478
leaf_count=11119 10858
internal_value=-8.59122e-05
internal_weight=458.498
internal_count=21977
is_linear=0
shrinkage=0.05


Tree=68
num_leaves=2
num_cat=0
split_feature=34
split_gain=454.864
threshold=3.5000000000000004
decision_type=2
left_child=-1
right_child=-2
leaf_value=0.050800877406570848 -0.050827210990199378
leaf_weight=219.21034423261881 219.19622122868896
leaf_count=11170 10888
internal_value=-1.15635e-05
internal_weight=438.407
internal_count=22058
is_linear=0
shrinkage=0.05


Tree=69
num_leaves=2
num_cat=0
split_feature=34
split_gain=432.722
threshold=3.5000000000000004
decision_type=2
left_child=-1
right_child=-2
leaf_value=0.050737660841569436 -0.050764933118280002
leaf_weight=208.54986213706434 209.45707677677274
leaf_count=11165 10918
internal_value=-0.000123553
internal_weight=418.007
internal_count=22083
is_linear=0
shrinkage=0.05


Tree=70
num_leaves=2
num_cat=0
split_feature=34
split_gain=410.667
threshold=3.5000000000000004
decision_type=2
left_child=-1
right_child=-2
leaf_value=0.050677421273782088 -0.050701469598915305
leaf_weight=198.98255093209445 198.58905774634331
leaf_count=11189 10876
internal_value=3.79893e-05
internal_weight=397.572
internal_count=22065
is_linear=0
shrinkage=0.05


Tree=71
num_leaves=2
num_cat=0
split_feature=34
split_gain=390.776
threshold=3.5000000000000004
decision_type=2
left_child=-1
right_child=-2
leaf_value=0.050619917154116435 -0.050641677544276231
leaf_weight=189.84973028674722 189.25116365216672
leaf_count=11204 10886
internal_value=6.88224e-05
internal_weight=379.101
internal_count=22090
is_linear=0
shrinkage=0.05


Tree=72
num_leaves=2
num_cat=0
split_feature=34
split_gain=371.14
threshold=3.5000000000000004
decision_type=2
left_child=-1
right_child=-2
leaf_value=0.050561941770655164 -0.050584639166762591
leaf_weight=179.98597682826221 180.78910237643868
leaf_count=11154 10919
internal_value=-0.000123651
internal_weight=360.775
internal_count=22073
is_linear=0
shrinkage=0.05


Tree=73
num_leaves=2
num_cat=0
split_feature=34
split_gain=353.849
threshold=3.5000000000000004
decision_type=2
left_child=-1
right_child=-2
leaf_value=0.050508232245264906 -0.050528736781002663
leaf_weight=172.44683518819511 172.17598896753043
leaf_count=11225 10916
internal_value=2.93067e-05
internal_weight=344.623
internal_count=22141
is_linear=0
shrinkage=0.05


Tree=74
num_leaves=2
num_cat=0
split_feature=34
split_gain=333.6
threshold=3.5000000000000004
decision_type=2
left_child=-1
right_child=-2
leaf_value=0.050451385311730351 -0.050471777907066966
leaf_weight=162.67322868760675 162.8522303942591
leaf_count=11122 10842
internal_value=-3.78906e-05
internal_weight=325.525
internal_count=21964
is_linear=0
shrinkage=0.05


Tree=75
num_leaves=2
num_cat=0
split_feature=34
split_gain=318.231
threshold=3.5000000000000004
decision_type=2
left_child=-1
right_child=-2
leaf_value=0.050401310327241655 -0.050417570590081409
leaf_weight=156.16363948397338 154.92409532424062
leaf_count=11213 10835
internal_value=0.000192059
internal_weight=311.088
internal_count=22048
is_linear=0
shrinkage=0.05


Tree=76
num_leaves=2
num_cat=0
split_feature=34
split_gain=301.616
threshold=3.5000000000000004
decision_type=2
left_child=-1
right_child=-2
leaf_value=0.050348807256418743 -0.050364581870872741
leaf_weight=148.03888759575784 147.32109658047557
leaf_count=11157 10821
internal_value=0.000114051
internal_weight=295.36
internal_count=21978
is_linear=0
shrinkage=0.05


Tree=77
num_leaves=2
num_cat=0
split_feature=34
split_gain=287.938
threshold=3.5000000000000004
decision_type=2
left_child=-1
right_child=-2
leaf_value=0.050298861903285121 -0.050315893898265511
leaf_weight=141.05863990914077 141.37217800877988
leaf_count=11159 10905
internal_value=-6.41973e-05
internal_weight=282.431
internal_count=22064
is_linear=0
shrinkage=0.05


Tree=78
num_leaves=2
num_cat=0
split_feature=34
split_gain=273.187
threshold=3.5000000000000004
decision_type=2
left_child=-1
right_child=-2
leaf_value=0.050248136692340795 -0.050264672074904093
leaf_weight=134.19854401610792 134.20838852785528
leaf_count=11162 10867
internal_value=-1.01348e-05
internal_weight=268.407
internal_count=22029
is_linear=0
shrinkage=0.05


Tree=79
num_leaves=2
num_cat=0
split_feature=34
split_gain=260.8
threshold=3.5000000000000004
decision_type=2
left_child=-1
right_child=-2
leaf_value=0.050200610411643969 -0.050217267279657453
leaf_weight=128.14344375673681 128.49093640130013
leaf_count=11189 10923
internal_value=-7.60817e-05
internal_weight=256.634
internal_count=22112
is_linear=0
shrinkage=0.05


Tree=80
num_leaves=2
num_cat=0
split_feature=34
split_gain=246.774
threshold=3.5000000000000004
decision_type=2
left_child=-1
right_child=-2
leaf_value=0.050150205883043655 -0.050165913928126721
leaf_weight=121.40758965071291 121.81459182873368
leaf_count=11136 10886
internal_value=-9.14758e-05
internal_weight=243.222
internal_count=22022
is_linear=0
shrinkage=0.05


Tree=81
num_leaves=63
num_cat=0
split_feature=25 25 21 25 25 2 25 2 21 2 7 22 25 20 18 16 25 22 18 21 29 21 31 15 23 32 25 26 18 21 33 15 18 18 22 33 16 33 32 22 33 31 33 32 27 2 30 22 20 20 32 23 25 28 33 20 16 32 32 32 23 31
split_gain=17.1016 3.54843 3.38626 0.794164 0.383615 0.344788 0.227255 0.220616 0.211099 0.184143 0.153692 0.114155 0.110045 0.113873 0.10935 0.0804797 0.0898755 0.0798075 0.0791932 0.0761194 0.0760291 0.074254 0.0696185 0.0826102 0.0692382 0.0680982 0.0738113 0.0613488 0.0601563 0.0577273 0.0574212 0.0542449 0.0514803 0.0513671 0.0498271 0.048054 0.0452076 0.0448831 0.0440063 0.0429908 0.048591 0.0451198 0.0472796 0.0423285 0.0416441 0.041189 0.0405455 0.0444987 0.0399968 0.0374348 0.0357588 0.0354167 0.0349649 0.0346654 0.0342462 0.0333722 0.0323595 0.0509009 0.0312633 0.030702 0.0306802 0.030575
threshold=55.600000000000009 23.350000000000005 38.250000000000007 46.550000000000004 67.950000000000017 3.5000000000000004 11.250000000000002 3.5000000000000004 10.350000000000003 2.5000000000000004 0.16960745815479425 1.0000000180025095e-35 40.95000000000001 15.336500000000003 6.6750000000000007 13.151333333333335 58.750000000000007 1.0000000180025095e-35 6.7350000000000012 12.550000000000002 46.180000000000007 14.750000000000002 36.565000000000005 44.470000000000006 0.055000000000000007 0.17500000000000002 24.650000000000002 2.5000000000000004 6.8950000000000005 9.3500000000000032 -2.4413333333333305 68.860000000000014 6.6450000000000005 6.785000000000001 1.0000000180025095e-35 -0.23999999999999908 143165590.35666671 143165574.87450004 0.15500000000000003 1.0000000180025095e-35 2.0295000000000019 33.405000000000008 -143165574.56966665 0.14500000000000005 2.5000000000000004 5.5000000000000009 2.5000000000000004 2.5000000000000004 14.459000000000001 14.785000000000002 0.17500000000000002 0.0014500000000000003 24.650000000000002 58.070000000000007 143165575.67550004 13.927500000000002 13.341500000000002 0.14500000000000005 0.12500000000000003 0.15500000000000003 0.045000000000000005 30.955000000000002
decision_type=10 8 10 10 10 2 10 2 10 2 8 10 10 2 8 2 10 10 10 10 2 10 2 2 8 10 10 2 10 8 2 2 8 10 10 2 2 2 10 10 2 2 2 10 10 2 10 10 2 2 10 10 8 2 2 2 2 10 10 10 10 2
left_child=1 6 4 5 8 10 -1 14 24 28 -3 45 25 21 -5 -10 43 51 29 30 -8 37 23 38 34 39 -27 33 -6 -7 -16 44 -28 60 48 -25 -11 53 -9 41 55 42 -12 49 52 -4 47 -32 -2 -17 -45 -18 -20 -14 -37 -41 -26 -58 -43 -15 -21 -53
right_child=2 3 11 7 9 18 20 22 15 36 12 -13 13 59 19 16 17 -19 31 27 -22 -23 -24 35 56 26 32 -29 -30 -31 46 -33 -34 -35 -36 54 -38 -39 -40 40 -42 58 -44 50 -46 -47 -48 -49 -50 -51 -52 61 -54 -55 -56 -57 57 -59 -60 -61 -62 -63
leaf_value=-0.031760808591849592 -0.0041321765661265237 0.0087075919460325394 0.0309418603682616 0.011171424283605 0.019778146849982935 -0.0079304248150945892 -0.020527608737047686 0.00065451263487083526 0.01271372382225087 0.010142823061186641 -0.0014255777862653388 0.0029347751108846419 -0.0098315892141171597 -0.0014906687482907142 0.0037991381893612746 0.001629515095981326 -0.0022463386904385848 0.010255997036428774 -0.0014990719256737801 0.0082122979703880029 -0.0025286962847245039 0.0044850448566109589 -0.0099976183962073965 0.0058593815507090698 0.0015252436166906446 0.0011133519596394964 -0.00037393300726331621 0.010176523665517301 0.0036492751534931826 0.0036621652919465136 -0.00579333257618717 8.8702759716990386e-05 -0.013585221130343503 -0.0056026622329903124 0.009569012104489542 -0.0054330049927953546 0.00093178013095748216 0.00090483736850414682 -0.01070548581089956 0.00060369203090963669 0.0051534450003245073 0.0033826220509165644 -0.011928574947136152 0.0059132916158975042 -0.0030761170140885157 0.0059401389581213281 0.0047083465127937402 0.0042505815977227383 0.0052548215334119958 -0.0095275716959898216 -0.0038563936266182487 -0.0012276075568776388 -0.016118433094974124 -0.00014002698307547627 0.0033974133459683865 -0.0086990338312390812 0.002969721651394799 -0.0072298885672447567 -0.004777653258722616 0.0069761012859389029 -0.0019974853608792577 0.0072873143191205612
leaf_weight=13.275901825167237 1.5925313942134356 0.80645181424915791 27.669790751300759 2.7126162862405243 11.763856313191356 3.3634644877165583 18.731764399446551 1.0534537807106956 8.5520565714687127 11.988803013227878 1.6389616988599298 0.6065954277291884 5.6304792892187798 1.1635330319404595 3.3025270681828278 0.90522343292832619 1.9738373849540973 10.874886648729442 0.63670045137406361 0.94914530962705546 0.91660874802619119 0.96023073513060886 3.6107315588742486 2.4723664643242946 2.8100377609953293 0.88833440002053876 0.85135466419160089 2.5818399386480451 1.1421432765200723 0.77254615165293206 6.2237737411633098 0.57581701595336099 10.124195662327111 1.1388665093109009 1.7903775656595824 1.8686407189816248 1.7235479280352581 1.3143492983654139 1.8923443453386424 1.6282541509717701 1.1524982275441287 0.64701348170638073 5.501479598693555 2.0469346614554529 1.2260482814162958 0.70375865511596103 0.56828811671584833 0.55954466946423043 1.0181692289188502 0.70025075785815716 0.55202266760170449 1.1406223531812432 21.918535045348108 1.1057129669934509 0.93363796081393946 1.0015980908647177 1.0658562015742061 3.3471174016594887 6.9874821696430445 2.1715519325807691 0.66754368226975203 2.5233287019655108
leaf_count=1378 145 73 2888 252 1138 312 1802 97 799 1117 150 57 514 106 302 83 180 1011 59 89 85 88 333 225 258 81 78 241 106 71 569 53 941 103 166 172 158 120 175 149 105 59 510 189 113 69 52 51 94 63 50 104 2054 101 85 93 98 305 641 200 61 235
internal_value=2.81187e-05 -0.0113939 0.0160231 -0.00668196 0.00963618 -0.00951194 -0.0254481 8.69334e-05 0.00634104 0.0142856 -0.00646842 0.0300843 -0.00694701 -0.00267478 0.00340679 0.00854124 0.00631271 0.00788893 -0.0137892 0.00150973 -0.0198511 -0.00545384 -0.00501796 -0.00198363 0.000563253 -0.00854051 -0.0116384 0.00586099 0.0187159 -0.00547366 -0.000985986 -0.0149296 -0.0126772 0.000184452 0.00492374 0.00180567 0.00912709 -0.00700388 -0.0075067 -0.00606619 -0.000989583 -0.00722067 -0.00998907 -0.000204147 -0.0152822 0.0305451 -0.0033331 -0.00452516 -2.9822e-05 -0.00502583 0.00334325 0.00246581 -0.0157869 -0.0084645 -0.0023712 -0.00435977 -0.00236932 -0.00467288 -0.00377442 0.00435977 0.00484432 0.00494168
internal_weight=232.018 135.526 96.4917 102.602 67.5116 72.0666 32.9243 30.5353 40.8933 26.6184 43.5735 28.9801 42.767 12.3459 18.7041 29.2692 20.7171 16.5127 28.4931 15.9915 19.6484 9.01077 11.8312 8.22044 11.6241 30.4212 11.8639 5.3374 12.906 4.13601 10.6541 24.3571 10.9756 2.75556 4.40108 5.27465 13.7124 8.05054 2.9458 18.5573 3.78235 14.7749 7.14044 4.20443 23.7813 28.3735 7.35161 6.78332 2.6107 1.60547 2.59896 5.63779 22.5552 6.73619 2.80228 2.62985 7.22301 4.41297 7.6345 3.33508 1.61669 3.66395
internal_count=22056 12743 9313 9478 6299 6671 3265 2807 3780 2519 4009 3014 3936 1129 1720 2714 1915 1530 2662 1468 1887 823 1087 754 1066 2807 1100 494 1244 383 974 2279 1019 253 405 482 1275 735 272 1707 347 1360 660 385 2226 2957 672 620 239 146 239 519 2113 615 257 242 661 403 700 306 150 339
is_linear=0
shrinkage=0.05


Tree=82
num_leaves=2
num_cat=0
split_feature=34
split_gain=233.812
threshold=3.5000000000000004
decision_type=2
left_child=-1
right_child=-2
leaf_value=0.050100044150471659 -0.050113624282814656
leaf_weight=115.43884075898677 115.37733795493841
leaf_count=11193 10891
internal_value=6.47441e-06
internal_weight=230.816
internal_count=22084
is_linear=0
shrinkage=0.05


Tree=83
num_leaves=2
num_cat=0
split_feature=34
split_gain=221.876
threshold=3.5000000000000004
decision_type=2
left_child=-1
right_child=-2
leaf_value=0.050050551240397916 -0.050065837397935013
leaf_weight=109.39962766133249 109.96173533424735
leaf_count=11138 10902
internal_value=-0.000135368
internal_weight=219.361
internal_count=22040
is_linear=0
shrinkage=0.05


Tree=84
num_leaves=2
num_cat=0
split_feature=34
split_gain=211.347
threshold=3.5000000000000004
decision_type=2
left_child=-1
right_child=-2
leaf_value=0.050005739788661442 -0.050017497632972689
leaf_weight=104.64736272674054 104.60102989990264
leaf_count=11183 10893
internal_value=5.11427e-06
internal_weight=209.248
internal_count=22076
is_linear=0
shrinkage=0.05


Tree=85
num_leaves=2
num_cat=0
split_feature=34
split_gain=200.731
threshold=3.5000000000000004
decision_type=2
left_child=-1
right_child=-2
leaf_value=0.049956753079126268 -0.049970667733868719
leaf_weight=99.241670216433704 99.78260156698525
leaf_count=11135 10914
internal_value=-0.00014211
internal_weight=199.024
internal_count=22049
is_linear=0
shrinkage=0.05


Tree=86
num_leaves=2
num_cat=0
split_feature=34
split_gain=190.133
threshold=3.5000000000000004
decision_type=2
left_child=-1
right_child=-2
leaf_value=0.049910720190877583 -0.049917626109470141
leaf_weight=94.770773735828698 94.019428985659033
leaf_count=11178 10799
internal_value=0.00019413
internal_weight=188.79
internal_count=21977
is_linear=0
shrinkage=0.05


Tree=87
num_leaves=2
num_cat=0
split_feature=34
split_gain=181.624
threshold=3.5000000000000004
decision_type=2
left_child=-1
right_child=-2
leaf_value=0.049862194044046328 -0.049875898865279718
leaf_weight=90.017876438330859 90.563189538195729
leaf_count=11151 10927
internal_value=-0.000156654
internal_weight=180.581
internal_count=22078
is_linear=0
shrinkage=0.05


Tree=88
num_leaves=2
num_cat=0
split_feature=34
split_gain=172.575
threshold=3.5000000000000004
decision_type=2
left_child=-1
right_child=-2
leaf_value=0.04981794112885584 -0.049823790422381442
leaf_weight=86.180789673700929 85.638914414681494
leaf_count=11208 10860
internal_value=0.000153271
internal_weight=171.82
internal_count=22068
is_linear=0
shrinkage=0.05


Tree=89
num_leaves=2
num_cat=0
split_feature=34
split_gain=164.064
threshold=3.5000000000000004
decision_type=2
left_child=-1
right_child=-2
leaf_value=0.049768364050477895 -0.049777218633674784
leaf_weight=81.814013365190476 81.751792278140783
leaf_count=11178 10882
internal_value=1.43645e-05
internal_weight=163.566
internal_count=22060
is_linear=0
shrinkage=0.05


Tree=90
num_leaves=2
num_cat=0
split_feature=34
split_gain=155.421
threshold=3.5000000000000004
decision_type=2
left_child=-1
right_child=-2
leaf_value=0.04971649428188929 -0.049727486869750537
leaf_weight=77.441664395388216 77.722726255655289
leaf_count=11110 10867
internal_value=-9.50202e-05
internal_weight=155.164
internal_count=21977
is_linear=0
shrinkage=0.05


Tree=91
num_leaves=2
num_cat=0
split_feature=34
split_gain=147.505
threshold=3.5000000000000004
decision_type=2
left_child=-1
right_child=-2
leaf_value=0.049667114998101551 -0.049675825754426833
leaf_weight=73.715327173471451 73.747372385114431
leaf_count=11113 10831
internal_value=-1.51061e-05
internal_weight=147.463
internal_count=21944
is_linear=0
shrinkage=0.05


Tree=92
num_leaves=2
num_cat=0
split_feature=34
split_gain=140.762
threshold=3.5000000000000004
decision_type=2
left_child=-1
right_child=-2
leaf_value=0.04961937776304317 -0.049628746812456624
leaf_weight=70.378775739111006 70.524123379960656
leaf_count=11141 10879
internal_value=-5.55462e-05
internal_weight=140.903
internal_count=22020
is_linear=0
shrinkage=0.05


Tree=93
num_leaves=2
num_cat=0
split_feature=34
split_gain=133.676
threshold=3.5000000000000004
decision_type=2
left_child=-1
right_child=-2
leaf_value=0.049566756367627238 -0.049578850368486325
leaf_weight=66.791741768829525 67.199587258975953
leaf_count=11099 10878
internal_value=-0.000155865
internal_weight=133.991
internal_count=21977
is_linear=0
shrinkage=0.05


Tree=94
num_leaves=2
num_cat=0
split_feature=34
split_gain=127.347
threshold=3.5000000000000004
decision_type=2
left_child=-1
right_child=-2
leaf_value=0.04951651509182789 -0.049528505943522483
leaf_weight=63.710855541285127 64.105098739732057
leaf_count=11126 10905
internal_value=-0.000157606
internal_weight=127.816
internal_count=22031
is_linear=0
shrinkage=0.05


Tree=95
num_leaves=63
num_cat=0
split_feature=25 25 21 2 25 25 2 25 21 18 21 30 31 21 18 25 22 18 21 23 25 23 22 25 18 21 21 25 5 18 25 29 32 33 18 21 21 25 33 23 32 2 15 25 30 22 29 33 18 18 18 5 22 33 23 29 23 33 14 21 33 33
split_gain=8.135 1.69737 1.50197 0.302481 0.219701 0.176024 0.129319 0.0922298 0.0749777 0.0690083 0.0556105 0.0468486 0.0431565 0.0403985 0.0374008 0.0436329 0.0399831 0.0372092 0.0348763 0.0398219 0.0337286 0.0338255 0.0316518 0.032506 0.0311574 0.0297668 0.0294076 0.0274266 0.0260811 0.0258365 0.0242183 0.020269 0.0198953 0.0190329 0.0184846 0.0248473 0.0189411 0.0212987 0.0167008 0.0154303 0.0150833 0.0150017 0.0148067 0.0146577 0.0140922 0.014971 0.0150393 0.0139878 0.0154193 0.0132629 0.0126605 0.0125248 0.0124545 0.010968 0.0105441 0.010401 0.0103568 0.0102076 0.0101458 0.0100958 0.0100495 0.0162576
threshold=56.050000000000004 28.050000000000004 38.250000000000007 3.5000000000000004 18.200000000000006 46.550000000000004 4.5000000000000009 68.050000000000011 14.350000000000001 6.6350000000000007 12.550000000000002 1.0000000180025095e-35 34.795000000000009 10.850000000000003 6.7350000000000012 54.850000000000001 2.5000000000000004 6.6650000000000009 7.5500000000000007 0.15500000000000003 62.850000000000001 0.085000000000000006 1.0000000180025095e-35 45.500000000000007 6.8050000000000006 7.9000000000000012 4.9000000000000012 47.750000000000007 1.0000000180025095e-35 6.5950000000000006 54.45000000000001 41.810000000000009 0.14500000000000005 -2.4413333333333305 6.8950000000000005 17.650000000000002 36.400000000000006 82.750000000000014 -0.57783333333333597 0.095000000000000015 0.15500000000000003 2.5000000000000004 63.530000000000008 29.450000000000003 2.5000000000000004 2.5000000000000004 39.515000000000008 2.6216666666666657 6.7250000000000005 6.6750000000000007 6.8750000000000009 1.0000000180025095e-35 1.0000000180025095e-35 143165575.62833336 0.14500000000000005 27.485000000000003 0.085000000000000006 -143165574.42383328 0.046945273891738921 4.2500000000000009 143165573.35850003 -143165575.33866665
decision_type=10 10 10 2 8 10 2 10 10 8 10 10 2 10 10 10 10 8 10 10 10 10 8 10 10 10 10 10 8 8 10 2 10 2 10 10 10 10 2 10 8 2 2 10 10 10 2 2 8 8 10 10 10 2 10 2 10 2 10 10 2 2
left_child=1 4 6 5 26 12 7 13 14 -6 17 -4 22 24 -5 16 51 -7 19 -14 60 -22 23 31 38 56 -1 -12 34 -15 -29 43 41 55 36 -36 37 -9 52 -10 -11 -31 49 -3 45 46 -35 -40 -49 -20 -23 -16 -2 -51 57 -19 -24 -26 -34 -21 61 -8
right_child=2 3 11 8 9 10 20 28 39 40 27 -13 18 29 15 -17 -18 33 42 59 21 50 25 -25 54 -27 -28 30 -30 32 -32 -33 58 44 35 -37 -38 -39 47 -41 -42 -43 -44 -45 -46 -47 -48 48 -50 53 -52 -53 -54 -55 -56 -57 -58 -59 -60 -61 -62 -63
leaf_value=-0.027556322421880483 -0.0054296353779097195 -0.00033466122863340397 0.028471318901707166 -0.0034375738137768213 0.0013713986803683496 0.0067019776669467769 0.0017553608937958473 0.01696375249381726 0.0030206420174047188 -0.0055748180697154882 -0.0020519328180006349 0.001980363730404308 -0.0055813756169927897 -0.0011308995316856724 -0.013403684162924921 0.0014980620619691424 7.853505021061318e-05 -0.0019522213444890298 -0.0017695574267065643 0.0052007128204321212 0.0076467568126366908 0.0023779915496928202 0.0046095744752318668 0.0018725137158130585 -5.9094964791907078e-05 -0.0052259826886887715 -0.0044551148444441522 0.010318144294495006 0.0021384675896223919 0.0068529888775463446 -0.00010527296283823325 -0.0004053055615057655 0.011423593776643617 -0.006057402296725389 -0.0013292133052570159 0.0080742818898130383 0.00083763332229366068 0.0019648706039796047 0.0049128380086098395 -0.0034295120211459019 -0.016239754820130174 0.00092247406831485416 -0.0028227427578282958 -0.0102971097606981 0.0024772111235019292 0.0021864830355859521 0.0011653962780537959 0.0030273299624880377 -0.0045561264665641395 0.0059889404822461283 -0.0035796113484000561 -0.0030090432349309296 0.0012333654121757314 -0.0011734750660776581 -7.334484076764521e-05 0.0037492376877921716 -0.0012966092702591651 0.0093376078198063438 0.0003843397349586285 -0.0013854747364350167 0.0015583658671305539 -0.0059451269910077136
leaf_weight=11.408729020506144 0.87050465354695916 0.46181013435125784 14.713330917991694 2.5014126487076345 0.50441517494618615 0.76492650993168165 0.46918829530477535 8.0884434706531376 0.96561929024755844 1.785239353775977 0.30226406268775496 0.32592864381149489 4.5859038499183935 0.40733848046511134 12.636904139071696 0.37666397076100189 0.60509254829958159 0.46478368947282422 0.41558438586071211 0.57830480718985189 1.9818743178620937 0.80258095497265436 0.87818300351500622 0.41656172368675459 0.32168061193078745 1.4991993582807479 0.57171628531068641 2.533756452146918 0.8068347363732763 2.7495775828137994 0.63779638893902291 0.72791193611919869 7.3920413223095238 2.905595767777414 0.70193557394668538 1.0105739193968473 0.31495017278939563 0.53261610725894648 0.91837993869558598 0.75515477219596505 9.0196754387579858 1.9855736186727879 0.38040326302871097 6.0884163631126285 0.31250928156077851 0.29612763691693533 0.53251624945551146 0.30916330311447382 0.49644715944305062 1.7970766527578237 0.82411426585167646 0.98570306738838631 0.63241122616454959 0.30434388853609551 0.45958322146907438 1.3383360207080839 0.65103306341916323 1.0576063408516345 0.28626412758603681 0.3868972766213119 0.61374884378164996 1.1199899031780651
leaf_count=2232 150 80 2956 435 87 134 81 1476 168 315 52 58 799 70 2235 65 106 80 72 99 348 141 151 72 56 260 103 448 141 485 111 126 1310 503 121 180 55 94 161 131 1622 345 66 1063 54 51 92 54 85 312 142 172 110 53 80 232 113 186 50 67 106 193
internal_value=-2.06881e-05 -0.01081 0.0152337 -0.00524102 -0.0216191 -0.00193572 0.00912352 0.0104409 -0.0100214 -0.0143128 0.0032075 0.0280565 -0.00466705 0.00744842 -0.0109693 -0.0119564 -0.0123875 0.000256007 -0.00170088 -0.00379939 0.00191569 0.00446094 -0.00665959 -0.00822653 0.00287764 -0.00162443 -0.0268821 0.00751422 0.0141403 0.00891555 0.00869925 -0.00896092 0.00930495 -0.00144223 0.014788 0.00515084 0.0159306 0.0163376 -0.000372102 -3.00989e-05 -0.0150992 0.00496062 0.0022629 -0.00973208 -0.00312804 -0.0040213 -0.00492817 0.00241189 -0.00158103 0.00361556 -0.000853962 -0.0129088 -0.00325332 0.00490772 0.00670265 0.00210744 0.00257664 0.00804233 0.0111037 0.00319906 -0.00234468 -0.00387175
internal_weight=121.569 71.3766 50.1927 48.0868 23.2898 29.2602 35.1534 29.3419 18.8266 11.3093 10.0886 15.0393 19.1716 17.8866 17.1058 14.6044 14.2277 6.6148 8.44851 5.55111 5.8115 3.60857 10.7231 7.6947 5.06578 3.02842 11.9804 3.47382 11.4554 12.8208 3.17155 7.27814 12.4135 5.84987 10.6485 1.71251 8.93601 8.62106 3.22691 1.72077 10.8049 4.73515 2.89741 6.55023 4.04675 3.73424 3.43811 1.72399 0.80561 2.517 1.6267 13.6226 1.50292 2.10142 1.83887 1.80312 1.52922 1.37929 7.67831 0.965202 2.20293 1.58918
internal_count=21995 12761 9234 8402 4359 5090 6220 5209 3312 2024 1757 3014 3333 3142 3013 2578 2513 1146 1468 965 1011 631 1865 1341 882 524 2335 611 2067 2260 559 1269 2190 1012 1926 301 1625 1570 560 299 1937 830 503 1143 700 646 595 300 139 437 283 2407 260 365 322 312 264 242 1360 166 380 274
is_linear=0
shrinkage=0.05


Tree=96
num_leaves=2
num_cat=0
split_feature=34
split_gain=120.404
threshold=3.5000000000000004
decision_type=2
left_child=-1
right_child=-2
leaf_value=0.049462975916639451 -0.049467102493557701
leaf_weight=60.606606495566666 60.415862903930247
leaf_count=11172 10853
internal_value=7.52428e-05
internal_weight=121.022
internal_count=22025
is_linear=0
shrinkage=0.05


Tree=97
num_leaves=2
num_cat=0
split_feature=34
split_gain=114.356
threshold=3.5000000000000004
decision_type=2
left_child=-1
right_child=-2
leaf_value=0.049407365225160059 -0.049413460279629728
leaf_weight=57.561801232397556 57.539092562161386
leaf_count=11139 10848
internal_value=6.59062e-06
internal_weight=115.101
internal_count=21987
is_linear=0
shrinkage=0.05


Tree=98
num_leaves=2
num_cat=0
split_feature=34
split_gain=108.981
threshold=3.5000000000000004
decision_type=2
left_child=-1
right_child=-2
leaf_value=0.049356285659351427 -0.049358036274136853
leaf_weight=55.056660970672965 54.782799917273223
leaf_count=11196 10851
internal_value=0.000121068
internal_weight=109.839
internal_count=22047
is_linear=0
shrinkage=0.05


Tree=99
num_leaves=63
num_cat=0
split_feature=25 21 25 21 25 2 2 25 25 18 21 23 22 21 5 8 23 22 20 25 23 25 20 29 15 2 31 25 23 25 20 20 20 15 32 18 25 18 29 2 18 16 31 16 23 20 18 15 18 20 32 23 20 16 29 27 21 23 21 7 16 16
split_gain=6.55703 1.27362 1.19829 0.215264 0.160182 0.150328 0.149726 0.0784559 0.065453 0.0556499 0.0416229 0.0405223 0.038119 0.0374924 0.0371709 0.0331832 0.0291426 0.0261634 0.0364466 0.0419451 0.0302491 0.030094 0.0284639 0.0256112 0.024441 0.0221816 0.0217153 0.021538 0.0211415 0.0207159 0.0185487 0.0215747 0.0252758 0.018126 0.016757 0.0150808 0.0196727 0.0137037 0.012609 0.0122516 0.0118235 0.0116816 0.0113916 0.0113757 0.010994 0.0107617 0.0106909 0.0106663 0.0102194 0.0181109 0.0122919 0.00973724 0.00949744 0.00919088 0.0091145 0.00878457 0.00873232 0.00839067 0.0125065 0.00813676 0.0074012 0.00713555
threshold=56.050000000000004 38.500000000000007 28.050000000000004 14.550000000000002 18.200000000000006 4.5000000000000009 3.5000000000000004 46.550000000000004 59.550000000000004 6.6250000000000009 5.9000000000000012 0.13500000000000004 1.0000000180025095e-35 4.9000000000000012 1.0000000180025095e-35 0.08857896126137639 0.32500000000000007 1.0000000180025095e-35 14.924000000000001 29.450000000000003 0.13500000000000004 40.20000000000001 15.336500000000003 27.150000000000002 58.030000000000008 2.5000000000000004 41.750000000000007 63.500000000000007 0.065000000000000016 39.750000000000007 16.449000000000005 13.553000000000001 11.677500000000004 68.860000000000014 0.18500000000000003 6.7350000000000012 54.850000000000001 6.6050000000000013 42.120000000000012 5.5000000000000009 6.7150000000000007 13.851333333333335 37.695000000000007 143165592.23033336 0.13500000000000004 11.3695 6.8950000000000005 53.865000000000009 7.1050000000000013 12.2995 0.18500000000000003 0.10500000000000002 12.7035 14.690000000000003 43.820000000000007 3.5000000000000004 7.3500000000000005 0.075000000000000025 10.250000000000002 0.14292242383757084 15.442500000000001 143165589.59550002
decision_type=10 10 8 10 10 2 2 10 10 8 10 10 10 10 8 8 10 10 2 8 10 8 2 2 2 2 2 10 10 10 2 2 2 2 10 10 10 10 2 2 10 2 2 2 8 2 8 2 8 2 10 10 2 2 2 10 8 8 8 10 2 2
left_child=2 5 4 6 13 8 7 15 30 -6 51 29 39 -1 16 -4 43 18 19 -17 54 22 -20 45 -11 48 42 61 -29 -5 31 32 -2 35 38 -8 -37 -33 55 -3 -13 -16 47 59 -30 -9 -23 57 49 -25 -51 -10 -50 -46 -21 -31 -27 58 -19 -12 -43 -7
right_child=1 12 3 11 9 27 33 23 10 24 14 40 -14 -15 41 17 -18 26 21 20 -22 46 -24 25 -26 56 -28 28 44 34 -32 37 -34 -35 -36 36 -38 -39 -40 -41 -42 60 -44 -45 53 -47 -48 -49 52 50 -52 -53 -54 -55 -56 -57 -58 -59 -60 -61 -62 -63
leaf_value=-0.025834465263818013 0.0046599134729377384 0.028302435499724766 0.0033140540159554083 -0.0020392832117908637 0.0018109570263536426 -0.0036752071373474396 -0.0039245604585968537 0.0010445960788723597 0.0031312896565837915 -0.015246354530868922 0.013174140191455625 0.0022539446848706913 0.0014170023500479855 -0.0034104341337143611 0.0050124186149676057 0.0015139940708815951 -0.00073090277417789851 0.0048117141413533092 0.0030992408858672481 -0.01174585680172277 -0.0013589548105752266 0.0046904927520033954 -0.0066178305196696874 -0.0012564797288959965 -0.0047962578545977918 -0.0040646183506574691 -0.0065975218154491469 0.0059819186572635033 -0.0035506308188535535 0.01037869777460235 -0.0012515430311167849 -0.00032535912175873666 -0.0032910642076324093 0.00016010575942402967 -0.00056925749993485197 -0.011731877627747985 0.00022275259241086645 0.0092525253059720629 -0.00051460891345723537 0.0032005815303146634 -0.00440957996289351 -0.0031637135372381432 0.0038066300989950835 0.00044353396480009363 0.0042265384262191955 -0.0055234525035697413 -0.0018372424674162589 -0.0047084905475331933 0.0030392713480549161 0.0081085074533866052 -0.00058718957931047817 -0.0026343344552832806 -0.0028160894933307403 -0.0018897030011794673 -0.00094704971890660595 0.00088559945472067327 0.001103834625676885 -0.0015871326604164873 -0.0021776103777320639 0.0011434883803469547 0.002067449472215782 0.0013619872927821046
leaf_weight=9.7061898866668344 0.98773900372908174 12.224931704346085 0.4195758649148047 0.23656619293615166 0.37594239460304102 1.6761464579030865 2.1654103221371743 0.52850523451343068 0.60897720605135219 7.3419929137453437 17.225927149876966 0.28453876497223951 0.24790317378938276 0.52617002092301923 0.68054865952581056 0.61708157276734521 0.29579266998916764 0.77340592490509341 0.3442734098061927 5.4215034884400666 1.2067507146857677 0.86900122882798281 2.1246426720172167 0.49610753962770182 1.8876386573538182 0.61936287907883492 0.67503918940201391 1.3965576365590098 0.76193782221525874 2.0445986669510616 0.97404603799805034 0.35828794958069909 1.0444902181625364 0.36964657716453153 0.44326057704165567 11.835335471667346 0.31571906898170787 1.6225839508697388 0.24701629625633348 0.32268649665638882 0.85922831110656261 0.53860140219330788 0.57521583372727025 0.25435617612674732 0.46308179246261727 0.86339592002332211 0.29891387419775139 0.42548559000715602 0.25483194179832924 1.8095393190160396 0.32507729995995749 0.37817983329296112 0.55457359366118908 0.3048916207626462 0.39208663254976261 0.48177143605425943 0.99295437615364801 1.4196142042055724 0.28872928395867359 0.34298481047153373 0.31247995654121041 0.37003234261646856
leaf_count=2231 201 2909 84 48 75 335 437 106 124 1538 3586 58 51 109 140 123 59 154 69 1100 242 174 431 99 384 124 137 284 152 420 196 72 208 74 89 2429 63 332 50 70 172 106 115 52 95 174 60 86 51 366 65 76 111 61 79 97 199 285 58 70 64 74
internal_value=0.000109818 0.0147984 -0.010339 -0.00528412 -0.0201717 0.00875535 -0.00654562 -0.00369689 0.0102468 -0.0130632 0.0115045 0.00422068 0.0275669 -0.0250877 0.0119863 -0.00549528 0.0126186 -0.00592191 -0.0071228 -0.00894886 -0.00994263 -0.00218512 -0.00476003 0.000870636 -0.0137869 0.00250759 -0.0019157 0.000641007 0.00300472 0.00649558 0.00398974 0.00525777 0.000835736 -0.010359 0.00745804 -0.0106234 -0.0114279 0.00799216 0.00855187 0.0279408 -0.00247375 0.00247643 0.000261219 0.0128672 -0.00100323 -0.00363548 0.00294297 -0.00123498 0.0044051 0.00554249 0.00701939 0.000708342 -0.000311729 0.00210292 -0.0112634 0.00933289 -0.00167751 0.000541832 0.00277711 0.0130135 -0.00116376 -0.0026162
internal_weight=104.81 43.3932 61.4167 41.5788 19.8379 30.5976 36.9818 22.2957 25.625 9.60557 20.6378 4.59698 12.7955 10.2324 19.6507 15.8513 18.1191 15.4317 11.2743 7.63742 7.02034 3.63683 2.46892 6.44435 9.22963 5.05245 4.15749 4.97265 2.92647 3.45321 4.98715 4.0131 2.03223 14.6861 3.21665 14.3165 12.1511 1.98087 2.77339 12.5476 1.14377 1.53163 3.48245 17.8233 1.52991 1.3919 1.16792 2.90724 3.44013 2.63072 2.13462 0.987157 0.809406 0.767973 5.81359 2.52637 1.61232 2.48175 1.06214 17.5689 0.851081 2.04618
internal_count=22083 9317 12766 8429 4337 6287 7495 4492 5286 1997 4277 934 3030 2340 4077 3197 3767 3113 2278 1544 1421 734 500 1295 1922 1015 835 1001 592 704 1009 813 409 3003 656 2929 2492 404 567 2979 230 310 698 3708 308 280 234 583 692 530 431 200 162 156 1179 517 323 497 212 3656 170 409
is_linear=0
shrinkage=0.05


Tree=100
num_leaves=2
num_cat=0
split_feature=34
split_gain=103.093
threshold=3.5000000000000004
decision_type=2
left_child=-1
right_child=-2
leaf_value=0.049291716513455992 -0.0493000153546862
leaf_weight=51.951449871296063 52.107803669758141
leaf_count=11139 10894
internal_value=-7.75532e-05
internal_weight=104.059
internal_count=22033
is_linear=0
shrinkage=0.05


Tree=101
num_leaves=63
num_cat=0
split_feature=25 25 21 21 2 25 2 5 25 18 21 25 21 25 22 21 18 25 15 23 1 7 18 25 17 27 22 0 20 25 20 20 32 15 27 32 17 17 17 23 33 16 17 5 16 25 18 20 21 25 21 20 17 25 18 33 26 18 25 20 20 23
split_gain=5.66459 1.11656 1.10114 0.223573 0.14969 0.132832 0.088398 0.0469479 0.0462678 0.0440705 0.0395125 0.0364535 0.0362758 0.0334987 0.0313897 0.0362461 0.0242138 0.0231739 0.0229175 0.0227018 0.0193897 0.0190023 0.018787 0.016963 0.0167877 0.0145472 0.014287 0.0135209 0.0134715 0.0132541 0.0123368 0.0118076 0.0118057 0.0198645 0.0116206 0.0117843 0.0113155 0.01931 0.0200132 0.0158969 0.0112492 0.0150509 0.0108464 0.0104852 0.0101814 0.0117736 0.0109998 0.00953081 0.00945436 0.00929901 0.0090888 0.00829399 0.00774537 0.00714942 0.0067076 0.00653911 0.00648599 0.00635218 0.00601282 0.00762455 0.0448569 0.0353479
threshold=56.050000000000004 28.050000000000004 38.250000000000007 14.65 3.5000000000000004 18.200000000000006 2.5000000000000004 inf 46.550000000000004 6.6350000000000007 4.9000000000000012 48.650000000000013 4.9000000000000012 39.750000000000007 1.0000000180025095e-35 17.150000000000002 6.6750000000000007 59.550000000000004 68.860000000000014 0.13500000000000004 1.5000000000000002 0.19901234363139 6.7350000000000012 51.350000000000001 12.481 1.0000000180025095e-35 1.0000000180025095e-35 2.5000000000000004 429496744.46850008 54.850000000000001 429496744.85550004 429496742.69250005 0.16500000000000004 45.685000000000009 3.5000000000000004 0.19500000000000003 13.938166666666669 143165587.16783336 143165590.43100002 0.15500000000000003 -143165576.83083329 143165589.94450003 14.90116666666667 1.0000000180025095e-35 143165591.76633337 81.950000000000017 6.6450000000000005 12.259500000000001 6.2500000000000009 58.750000000000007 84.850000000000009 11.232500000000002 5.2023333333333346 54.600000000000009 6.8950000000000005 -1.4195000000000009 6.5000000000000009 6.7350000000000012 28.650000000000002 14.8855 15.878000000000002 0.13500000000000004
decision_type=10 8 10 10 2 10 2 8 10 8 10 10 10 10 10 10 8 10 2 10 2 8 10 10 2 10 10 10 2 10 2 2 8 2 10 10 2 2 2 10 2 2 2 10 2 10 10 2 10 10 10 2 2 10 8 2 2 10 8 2 2 10
left_child=1 5 6 4 8 12 7 10 21 -7 57 18 -1 -5 15 20 -10 49 22 34 -8 -3 -6 25 32 -13 30 28 44 -25 50 58 33 -23 35 53 47 39 -39 -38 -22 51 -21 56 45 46 -16 54 -48 -12 -4 -42 -34 -15 -18 -51 -11 -2 -26 61 -61 -60
right_child=2 3 26 13 11 9 14 -9 16 43 17 23 -14 19 27 -17 36 -19 -20 42 40 24 -24 29 31 -27 -28 -29 -30 -31 -32 -33 52 -35 -36 -37 37 38 -40 -41 41 -43 -44 -45 -46 -47 48 -49 -50 55 -52 -53 -54 -55 -56 -57 -58 -59 59 60 -62 -63
leaf_value=-0.025255852787139755 -0.0028098963334989586 0.0021868984896178858 0.026997484984472766 -0.0038519737652007919 -0.0035918655027666704 0.0010608358951050322 0.0034468434243892579 -0.0007800093463262161 0.0051396268468766951 -0.014242085263915204 0.0057330285770054714 0.0040306815488070505 -0.0030993990992482096 0.010311044784418653 -0.00031021561967024467 0.0054975995543767031 -0.0037316634367019689 0.013289588351644066 0.00076001418282441462 0.0028102141358108384 0.0017718050686189775 -0.0026163134280807066 -0.012869415298102958 -0.007242017011623564 3.7518501667525489e-05 -0.0027317278748428021 0.0022773566656314327 -0.0012448097964641008 -0.0011578959499537389 0.00080466723987808052 0.0020818219220405912 0.00078558631956923914 0.001232544777721372 0.0053881837739076371 0.0001782326384131446 -0.00019292445847894591 -0.0065885390796189634 0.0048005575965974004 -0.0033957539209235055 0.0018110520134207301 0.00018950985281212897 0.0015823288570975258 -0.0032279406199422975 -0.0011802468092803377 -0.00045303382991212409 -0.00076568589533923764 -9.305848048283008e-05 0.0029392109647435848 0.0084100319367269218 0.0023673374999028281 0.0019759028911112979 -0.0068959817512685932 -0.004574600319689647 0.00026888278601218727 0.0013108626791240672 -0.0026454799358012013 -0.0017184339330551955 0.002215230111118573 -0.008872148153329219 0.0028377042157470664 -0.0064704786667423081 -3.5113929394134482e-05
leaf_weight=9.1195204150862992 0.29282712517306286 0.39919342426583171 11.400829942431294 0.30721976654603977 1.5939018093049497 0.39960668003186306 0.55472507840022389 0.67087548132985908 0.88115285197272797 7.9299749075435084 1.5096797319129103 0.52394442819058828 0.49602874275297004 2.0318174753338112 0.3300598170608201 2.0996974841691554 0.48917224071919951 10.517704384401439 0.24817419005557972 0.4814748940989374 0.35572262480855066 0.67903076950460783 9.1472559180110675 1.5278838360682128 0.36082782782613776 0.69425045326352119 0.26016143010929305 0.24250022880733091 0.2378779351711281 0.41041380958631624 0.22815841180272478 0.41072551999241191 0.30691651627421368 0.56533479318022728 0.48871300881728519 0.29334143921732891 1.6425085812807085 0.67219053348526336 0.42139280727133155 0.25499675935134281 0.43076697830110777 0.42895861715078343 0.50234023667871952 0.36448143376037556 0.30585356848314482 0.24319990957155901 0.31685918197035601 1.423932359088212 7.8478117263875902 0.2444173926487565 0.20165876927785653 1.5369733022525904 1.0959812104701994 0.24619249859824766 0.49345783842727542 0.38440416008234013 0.40428375266492356 0.2529051722958684 6.1487408126704395 1.3834088556468489 2.3209239291027188 1.3538685664534567
